#include <math.h>
#include <UARTClass.h>
UARTClass Serial1(1);

// Define model architecture constants based on the printed shapes
#define HIDDEN_WEIGHTS_DIM1 3
#define HIDDEN_WEIGHTS_DIM2 96
#define HIDDEN_BIASES_SIZE 32
#define OUTPUT_WEIGHTS_DIM1 3
#define OUTPUT_WEIGHTS_DIM2 6144
#define OUTPUT_BIASES_SIZE 64
#define INPUT_SIZE 96  // Based on hidden_weights_dim2



// Global arrays with correct dimensions from the Python model



float hidden_weights[HIDDEN_WEIGHTS_DIM1][HIDDEN_WEIGHTS_DIM2] ={{-3.955813497304916382e-02,-3.012047708034515381e-02,1.084775775671005249e-01,6.322926282882690430e-02,9.878995269536972046e-02,1.171345040202140808e-01,
-8.946717530488967896e-02,6.923069711774587631e-03,-6.276705116033554077e-02,-1.172310635447502136e-01,3.218821436166763306e-02,1.137306243181228638e-01,1.095974519848823547e-01,
9.127113968133926392e-02,1.113942638039588928e-01,1.236403435468673706e-01,-1.484391391277313232e-01,4.439596086740493774e-02,1.228381022810935974e-01,1.015372723340988159e-01,
-4.833133146166801453e-02,1.320757996290922165e-02,-1.520018726587295532e-01,1.224400326609611511e-01,-6.990729272365570068e-02,-1.978749409317970276e-02,1.386329978704452515e-01,
1.191631555557250977e-01,1.156170591711997986e-01,5.640858411788940430e-02,-7.424139976501464844e-02,-2.784135192632675171e-02,-1.123192068189382553e-02,1.602385565638542175e-02,
8.374293893575668335e-02,1.335187554359436035e-01,-1.969295553863048553e-02,1.316650956869125366e-01,1.056491397321224213e-02,-1.307989358901977539e-01,2.179886400699615479e-02,
-1.071002334356307983e-01,2.178650721907615662e-02,-6.372789293527603149e-02,-8.805276453495025635e-02,-5.534866079688072205e-02,2.719741687178611755e-02,-2.856115461327135563e-04,
7.342303544282913208e-02,-1.636076718568801880e-02,1.561648864299058914e-02,-9.922981262207031250e-02,-8.422376215457916260e-02,7.837820053100585938e-02,-8.526728488504886627e-03,
-1.457755267620086670e-01,-4.364460706710815430e-02,1.427998542785644531e-01,6.047642603516578674e-02,-6.681350618600845337e-02,8.536768704652786255e-02,-1.320501863956451416e-01,
-7.003651466220617294e-03,-9.598030149936676025e-02,3.039427474141120911e-02,-6.607554852962493896e-02,-1.451904177665710449e-01,-5.805771425366401672e-02,1.057787910103797913e-01,
-7.919482141733169556e-02,1.353724896907806396e-01,1.975911706686019897e-01,-8.355578407645225525e-03,8.938591927289962769e-02,-5.040493607521057129e-02,-6.155270710587501526e-02,
4.752639308571815491e-02,-7.168786972761154175e-02,-1.047066133469343185e-02,2.126860059797763824e-02,-4.612582549452781677e-02,-2.463931590318679810e-02,3.837291896343231201e-02,
-1.126962304115295410e-01,1.371638290584087372e-02,-1.149315387010574341e-01,-1.148089990019798279e-01,-1.007820591330528259e-01,-6.880848109722137451e-02,8.093146234750747681e-02,
-9.825121611356735229e-02,7.255397737026214600e-02,-1.429468160495162010e-03,-7.626021653413772583e-02,-8.896394819021224976e-02,-1.171927228569984436e-01},
{-1.027523502707481384e-01,1.092105731368064880e-02,3.011870570480823517e-02,7.211943715810775757e-02,1.187811940908432007e-01,1.178694814443588257e-01,-1.004154533147811890e-01,
1.103537995368242264e-02,5.450215190649032593e-02,1.030773967504501343e-01,4.150212928652763367e-02,1.107519045472145081e-01,-6.393467634916305542e-02,1.251578629016876221e-01,
-1.009083762764930725e-01,-1.070316955447196960e-01,-6.793347001075744629e-02,1.241383850574493408e-01,1.309713423252105713e-01,4.505902901291847229e-02,1.362385600805282593e-02,
-1.598006859421730042e-02,5.271774251013994217e-03,1.195618584752082825e-01,-1.064712703227996826e-01,-1.446556746959686279e-01,1.281897127628326416e-01,-1.169310286641120911e-01,
-3.046955913305282593e-02,-8.990248292684555054e-02,9.604683518409729004e-02,-1.462945491075515747e-01,4.625645652413368225e-02,1.737142056226730347e-01,-3.229561448097229004e-02,
-9.575019031763076782e-02,9.005655534565448761e-03,-9.026671946048736572e-02,-8.566591888666152954e-02,1.636755280196666718e-02,5.130580067634582520e-02,4.464518278837203979e-02,
-8.863037079572677612e-02,-3.715420514345169067e-02,1.545920073986053467e-01,-1.730025187134742737e-02,9.555939584970474243e-02,1.095215082168579102e-01,1.990069821476936340e-02,
9.278496727347373962e-03,-7.155024260282516479e-02,1.289400011301040649e-01,-1.770654879510402679e-02,-3.616426885128021240e-02,3.732414171099662781e-02,-1.404924094676971436e-01,
7.342685014009475708e-02,-2.103165239095687866e-01,-1.162027642130851746e-01,1.451156847178936005e-02,1.285854913294315338e-02,1.112211644649505615e-01,7.614315301179885864e-02,
3.567106276750564575e-02,2.254660986363887787e-02,-1.168619319796562195e-01,3.586921095848083496e-02,-1.420703232288360596e-01,-4.173952713608741760e-02,4.452129453420639038e-02,
-1.113550215959548950e-01,-1.684606224298477173e-01,-6.357493996620178223e-02,3.221223875880241394e-02,4.939457774162292480e-02,-3.132699802517890930e-02,-5.637912079691886902e-02,
-3.533566743135452271e-02,-1.460442841053009033e-01,1.116580367088317871e-01,2.377863973379135132e-02,1.973153650760650635e-02,-5.843997374176979065e-02,-1.573308855295181274e-01,
1.147715225815773010e-01,-4.407324269413948059e-02,-6.629306077957153320e-02,1.168624758720397949e-01,4.061684384942054749e-02,-5.002915859222412109e-02,-1.886383071541786194e-02,
-1.148270443081855774e-01,1.094207093119621277e-01,-9.576840698719024658e-02,3.865851461887359619e-02,1.151559874415397644e-01},
{1.022576447576284409e-02,-2.169458568096160889e-01,-3.857640922069549561e-02,-1.895128749310970306e-02,2.885525859892368317e-02,-7.513148337602615356e-02,5.255946889519691467e-02,
-1.002652198076248169e-02,1.116077974438667297e-01,-7.053504139184951782e-02,-4.161170125007629395e-02,-1.371534019708633423e-01,-7.736735045909881592e-02,-1.012779846787452698e-01,
1.077095493674278259e-01,-1.367440074682235718e-01,6.695935875177383423e-02,-7.149319630116224289e-03,-1.031166613101959229e-01,-1.654092222452163696e-02,6.270431727170944214e-02,
-6.924911588430404663e-02,1.489596515893936157e-01,-4.909452423453330994e-02,1.582950353622436523e-01,-9.828054904937744141e-02,-9.370279312133789062e-02,-6.331206858158111572e-02,
-7.427253574132919312e-02,1.101811379194259644e-01,8.421985805034637451e-02,7.573767751455307007e-02,-8.911813050508499146e-02,-2.186799608170986176e-02,1.562836952507495880e-02,
-7.818337529897689819e-02,-6.422708183526992798e-02,8.175870776176452637e-02,1.877743005752563477e-02,-6.692631170153617859e-03,-6.319487839937210083e-02,-1.247924491763114929e-01,
1.243944540619850159e-01,5.434328317642211914e-02,-9.601098299026489258e-02,1.131501123309135437e-01,1.100585311651229858e-01,-1.214850544929504395e-01,-5.449175834655761719e-02,
-6.164618209004402161e-02,4.900429397821426392e-03,9.513829648494720459e-02,-1.473657134920358658e-02,6.093037873506546021e-02,1.281694322824478149e-01,1.069554761052131653e-01,
-1.229088678956031799e-01,-1.575194299221038818e-02,1.083626970648765564e-01,7.882921956479549408e-03,9.113683551549911499e-02,8.567007631063461304e-02,-1.373276114463806152e-02,
1.244656816124916077e-01,9.714044630527496338e-02,-2.058297395706176758e-01,7.484988123178482056e-02,1.226126998662948608e-01,-2.315804734826087952e-02,-1.518621742725372314e-01,
1.573809087276458740e-01,-6.057844497263431549e-03,-5.248814821243286133e-02,1.421479433774948120e-01,-1.112294644117355347e-01,7.543022185564041138e-02,3.787658736109733582e-02,
-7.154324650764465332e-02,-2.688174718059599400e-04,-4.377881810069084167e-02,1.164186671376228333e-01,-3.166166320443153381e-02,-8.189955353736877441e-02,6.619736086577177048e-03,
-7.212596386671066284e-02,1.292260140180587769e-01,-3.665384650230407715e-02,-9.033981710672378540e-03,1.153764724731445312e-01,-1.924289017915725708e-01,-1.261505782604217529e-01,
1.351152062416076660e-01,-2.463447488844394684e-02,4.299299418926239014e-02,-7.160503417253494263e-02,5.705703049898147583e-03}};

float hidden_biases[HIDDEN_BIASES_SIZE] ={-1.015272550284862518e-02,2.145634777843952179e-02,-5.903629958629608154e-02,-3.501485288143157959e-02,-5.196947976946830750e-02,-3680837526917457581e-02,
-5.778815597295761108e-03,6.985079497098922729e-03,-2.616180479526519775e-02,-6.736612413078546524e-03,-4.896584898233413696e-03,-4.856784269213676453e-02,-3.170993551611900330e-02,
-1.112306583672761917e-02,-4.922148212790489197e-02,9.184076450765132904e-03,-4.709618631750345230e-03,-3.560072183609008789e-02,-7.792511954903602600e-03,-2.632086165249347687e-02,
-7.417471148073673248e-03,-2.628392353653907776e-02,-1.553811132907867432e-02,-1.513051800429821014e-02,1.686794566921889782e-03,1.739949360489845276e-02,-2.720849821344017982e-03,
-2.465320285409688950e-03,-4.123521968722343445e-02,-8.102435618638992310e-03,-1.376920659095048904e-02,-8.997783297672867775e-04};

float output_weights[OUTPUT_WEIGHTS_DIM1][OUTPUT_WEIGHTS_DIM2] = {{5.364975705742835999e-02,-7.991331070661544800e-02,-5.411366745829582214e-02,3.763488680124282837e-02,-5.455180630087852478e-02,
-1.133228931576013565e-02,-3.473525866866111755e-02,5.392153561115264893e-02,1.887269504368305206e-02,-8.292277343571186066e-03,-4.291031043976545334e-03,-4.663934931159019470e-02,
-6.662782281637191772e-02,-2.631160430610179901e-02,2.418958395719528198e-02,-3.125517070293426514e-02,-7.535301148891448975e-02,-6.660672277212142944e-02,-5.812573060393333435e-02,
-5.643355473875999451e-02,-5.917410925030708313e-02,-1.751501671969890594e-02,-3.999213501811027527e-02,6.213941052556037903e-02,-3.116711974143981934e-02,4.821521788835525513e-02,
7.456634193658828735e-02,3.562600119039416313e-03,1.025277655571699142e-02,-6.008350849151611328e-02,-2.434615790843963623e-02,-1.289418786764144897e-01,2.433965168893337250e-02,
-4.929616302251815796e-02,-2.575379796326160431e-02,2.230834588408470154e-02,1.310045924037694931e-02,2.791841514408588409e-02,-4.806262999773025513e-02,-4.597909748554229736e-02,
-2.038432471454143524e-02,2.276470186188817024e-03,-4.348865151405334473e-02,4.423836991190910339e-02,1.962394453585147858e-02,-2.197533100843429565e-02,-7.379212975502014160e-02,
-4.466918762773275375e-03,1.612045615911483765e-02,-5.922370404005050659e-02,5.411564558744430542e-02,2.363215759396553040e-02,-6.333807110786437988e-02,-3.715291991829872131e-02,
-8.120896667242050171e-02,-7.918895781040191650e-02,-4.238579422235488892e-04,-2.442899160087108612e-02,-2.202177420258522034e-02,2.388872206211090088e-03,2.322616986930370331e-02,
4.926837235689163208e-02,-1.205170806497335434e-02,-2.449155412614345551e-02,-3.719590604305267334e-03,1.136255357414484024e-02,-2.002990059554576874e-02,7.718503475189208984e-02,
-8.017931878566741943e-02,9.727521985769271851e-02,5.251494050025939941e-02,2.178355306386947632e-02,-1.098826453089714050e-01,4.284923896193504333e-02,3.386203572154045105e-02,
-6.216526776552200317e-02,-6.284351646900177002e-02,-6.416855752468109131e-02,1.447286643087863922e-02,1.499934047460556030e-01,-3.831271082162857056e-02,-3.697045519948005676e-02,
4.153714701533317566e-02,-1.085228100419044495e-01,2.515886165201663971e-02,8.519789576530456543e-02,-3.282216563820838928e-02,-6.458926200866699219e-02,3.663043677806854248e-02,
-1.081491708755493164e-01,-9.156546555459499359e-03,-2.064777910709381104e-01,-2.412610687315464020e-02,-1.990527845919132233e-02,-1.323137432336807251e-01,-3.020763769745826721e-02,
-8.085990697145462036e-02,3.191353753209114075e-02,3.400566428899765015e-02,1.631808467209339142e-02,-8.339804410934448242e-02,3.366740420460700989e-02,5.068671703338623047e-02,
1.072971033863723278e-03,7.247572392225265503e-02,5.544381216168403625e-02,-1.053054928779602051e-01,1.770320162177085876e-02,1.625573076307773590e-02,4.038427025079727173e-02,
-1.267769485712051392e-01,-1.430831477046012878e-02,-5.146342515945434570e-02,6.531222909688949585e-02,7.696856558322906494e-02,-4.939835891127586365e-02,-9.530633687973022461e-03,
-5.461958050727844238e-02,4.805107042193412781e-02,5.878692958503961563e-03,-1.566300867125391960e-03,-1.701952330768108368e-02,-1.084217354655265808e-01,2.022910490632057190e-02,
-8.737238496541976929e-02,-5.658993870019912720e-02,-2.031155377626419067e-01,-5.338934436440467834e-02,7.618670910596847534e-02,-2.164393290877342224e-02,-8.919987082481384277e-02,
-9.279123507440090179e-03,7.303217798471450806e-02,1.641328446567058563e-02,-4.384446144104003906e-02,3.016287926584482193e-03,3.653675317764282227e-02,-1.150768343359231949e-02,
-2.629513619467616081e-03,-1.989030838012695312e-02,-6.417407095432281494e-02,-5.116651207208633423e-02,5.751756578683853149e-02,3.301796689629554749e-02,8.225116133689880371e-02,
4.640796780586242676e-02,-7.193604856729507446e-02,7.561001926660537720e-02,-5.796546861529350281e-02,-2.836113236844539642e-02,-3.329458832740783691e-02,6.387580931186676025e-02,
-6.952755153179168701e-02,7.129808515310287476e-02,2.027949132025241852e-02,6.243696436285972595e-02,-7.953293621540069580e-02,8.442172780632972717e-03,6.579802930355072021e-02,
-8.138586580753326416e-02,5.991437286138534546e-02,2.594400569796562195e-02,5.881531536579132080e-02,-3.397774323821067810e-02,-1.284695789217948914e-02,8.042357861995697021e-02,
-4.170706123113632202e-02,5.671303719282150269e-02,5.658187344670295715e-02,-2.009689062833786011e-02,7.968600839376449585e-02,4.880019649863243103e-02,-1.417022105306386948e-02,
5.223233625292778015e-02,-6.524934619665145874e-02,7.018238306045532227e-02,4.939621686935424805e-02,8.211751282215118408e-02,-2.626870945096015930e-02,3.114632517099380493e-02,
-1.913093030452728271e-02,-1.614152453839778900e-02,-2.868171967566013336e-02,7.856591790914535522e-02,-1.574380509555339813e-02,2.015553042292594910e-02,9.611119516193866730e-03,
4.142146930098533630e-02,3.826374560594558716e-02,4.338924586772918701e-02,-4.656269773840904236e-02,2.223519375547766685e-03,1.155721619725227356e-01,6.418672204017639160e-02,
-1.097709834575653076e-01,7.473448663949966431e-02,4.958500713109970093e-02,6.202613189816474915e-02,7.043453305959701538e-02,4.715640097856521606e-02,-4.622942954301834106e-02,
-6.191210821270942688e-02,-4.230239242315292358e-02,-6.050932407379150391e-02,2.267332375049591064e-02,-2.793082594871520996e-02,-3.166382014751434326e-02,-4.172726720571517944e-02,
6.025278568267822266e-02,-3.957250341773033142e-02,5.107228830456733704e-02,-5.411244183778762817e-02,-2.402478829026222229e-02,9.196112304925918579e-02,-2.856737561523914337e-02,
3.418175503611564636e-02,7.653275877237319946e-02,-3.297296538949012756e-02,-5.430249124765396118e-02,2.320219576358795166e-02,-7.736381143331527710e-02,6.524022668600082397e-02,
-4.899936169385910034e-02,-6.776335835456848145e-02,8.640975691378116608e-03,-7.192776352167129517e-02,-9.122577309608459473e-02,-3.002702444791793823e-02,-7.062859833240509033e-02,
-6.291611492633819580e-02,-3.558683767914772034e-02,-4.084368795156478882e-02,-2.536083757877349854e-02,7.039290666580200195e-02,-3.994243592023849487e-02,-6.871734559535980225e-02,
8.346371352672576904e-02,-7.655388861894607544e-02,3.678908571600914001e-02,-4.169699177145957947e-02,-4.344996809959411621e-02,-2.329073101282119751e-02,-3.802981972694396973e-02,
2.753548510372638702e-02,8.103329688310623169e-02,6.980899721384048462e-02,4.738372191786766052e-02,-4.793735593557357788e-02,3.075769916176795959e-02,4.635911900550127029e-03,
-3.638345003128051758e-02,5.709921941161155701e-02,-4.165302217006683350e-02,-5.208516493439674377e-02,1.165609064628370106e-04,-3.483716771006584167e-02,-7.171303499490022659e-03,
-6.817153096199035645e-02,-9.245671331882476807e-02,7.024282217025756836e-02,-4.132764041423797607e-02,-9.109634160995483398e-02,1.042334642261266708e-02,6.597182154655456543e-02,
-2.711630240082740784e-02,3.580736741423606873e-02,-8.588479459285736084e-02,-8.084010332822799683e-02,-1.871473714709281921e-02,3.167242184281349182e-02,4.265308845788240433e-03,
-8.954197168350219727e-02,-5.276400223374366760e-02,5.855257064104080200e-02,-6.004288792610168457e-02,9.131380915641784668e-02,6.670476496219635010e-02,1.429481245577335358e-02,
4.975023865699768066e-02,-2.821840159595012665e-02,6.777387112379074097e-02,-8.554987609386444092e-02,-8.524969220161437988e-02,3.165171481668949127e-03,4.423976351972669363e-04,
-6.759487837553024292e-02,-8.976495265960693359e-02,-9.527380019426345825e-02,-8.795490115880966187e-02,4.790228232741355896e-02,-8.682578802108764648e-03,4.394714534282684326e-02,
5.794080719351768494e-02,6.687948852777481079e-02,-6.319399923086166382e-02,4.207195341587066650e-02,2.180216601118445396e-03,2.675709314644336700e-02,6.869398802518844604e-02,
5.654882639646530151e-02,6.696782261133193970e-02,-1.996310893446207047e-03,4.038223996758460999e-03,7.544073462486267090e-02,-9.581790119409561157e-02,6.731214374303817749e-02,
-2.393989078700542450e-02,8.199919760227203369e-02,-5.028408020734786987e-02,-3.495135530829429626e-02,-3.855036199092864990e-02,-1.414421759545803070e-02,-3.006616048514842987e-02,
4.231939092278480530e-02,1.410519331693649292e-02,-7.391243707388639450e-03,-3.649100661277770996e-02,8.465433120727539062e-02,-1.731718517839908600e-02,7.336562126874923706e-02,
5.426979064941406250e-02,-4.409633949398994446e-02,-7.434777915477752686e-02,-4.019259661436080933e-02,-7.727275788784027100e-02,-3.435730561614036560e-02,-4.870491102337837219e-02,
7.642389088869094849e-02,5.269470810890197754e-02,-7.103398442268371582e-02,-5.216125771403312683e-02,5.361990630626678467e-02,1.591324806213378906e-02,-2.608035132288932800e-02,
-2.563781291246414185e-02,2.349985018372535706e-02,7.760792970657348633e-02,7.986751198768615723e-02,6.891769170761108398e-02,-4.574969643726944923e-04,-3.380803391337394714e-02,
3.549551591277122498e-02,-5.232373625040054321e-02,-4.295383021235466003e-02,3.216593759134411812e-03,5.092810839414596558e-02,-1.244486588984727859e-02,6.518955528736114502e-02,
2.910296805202960968e-02,4.389778152108192444e-02,3.730342537164688110e-02,-1.162138059735298157e-01,-1.705429702997207642e-02,6.310211867094039917e-02,7.615419477224349976e-02,
-4.079490154981613159e-02,5.511809140443801880e-02,-6.323043256998062134e-02,3.107615746557712555e-02,-6.322576850652694702e-02,-4.794420674443244934e-02,-2.508526667952537537e-02,
-2.732103131711483002e-02,-7.449550554156303406e-03,2.688818378373980522e-03,5.990078300237655640e-02,-6.412912160158157349e-02,3.980817273259162903e-03,3.410455957055091858e-02,
-4.342757631093263626e-03,8.055368089117109776e-04,-1.192884519696235657e-02,9.625013917684555054e-02,7.207518815994262695e-02,4.121349006891250610e-02,-6.115436181426048279e-02,
4.794353619217872620e-02,-4.931840114295482635e-03,-7.033597677946090698e-02,-6.067950278520584106e-02,-2.841000631451606750e-02,-4.746236652135848999e-02,-1.382143329828977585e-02,
6.625252426601946354e-04,7.821680605411529541e-02,5.729031190276145935e-02,-9.346067160367965698e-02,6.870543211698532104e-02,-3.064621239900588989e-02,-5.261740647256374359e-03,
5.526222661137580872e-02,1.307990550994873047e-01,-3.370520472526550293e-02,3.279175981879234314e-02,1.120917275547981262e-01,-2.725134976208209991e-02,1.104521602392196655e-01,
1.155326794832944870e-02,2.190101891756057739e-02,-4.689956456422805786e-02,-2.976940572261810303e-02,-3.698925673961639404e-02,2.989508910104632378e-03,9.697633981704711914e-02,
3.601865470409393311e-02,3.981126844882965088e-02,9.147372096776962280e-02,3.174536302685737610e-02,1.194886714220046997e-01,-3.518673405051231384e-02,7.797694951295852661e-02,
5.154974386096000671e-02,1.070580929517745972e-01,2.605087123811244965e-03,-1.618168753338977695e-04,-4.728755354881286621e-02,5.655547603964805603e-03,5.788463354110717773e-02,
5.650764703750610352e-02,6.292299926280975342e-02,8.134758472442626953e-02,8.394748717546463013e-02,-9.770448505878448486e-02,-7.187563925981521606e-02,-3.792397619690746069e-04,
4.144781082868576050e-02,5.738305673003196716e-02,-9.108578413724899292e-02,3.245742991566658020e-02,8.421837538480758667e-02,3.415275365114212036e-02,2.724261768162250519e-02,
2.375146560370922089e-02,1.159671396017074585e-01,1.406045723706483841e-02,3.334715031087398529e-03,-1.465922035276889801e-02,7.274147868156433105e-02,8.027328550815582275e-02,
-6.396767497062683105e-02,5.090615246444940567e-03,1.011713873594999313e-02,3.825962916016578674e-02,7.887064665555953979e-02,1.170046478509902954e-01,-4.521511122584342957e-02,
4.861340299248695374e-02,3.956078365445137024e-02,-8.950858563184738159e-02,-1.388969272375106812e-01,1.371231526136398315e-01,3.275835420936346054e-03,1.375633180141448975e-01,
7.353010028600692749e-02,6.356995552778244019e-02,-4.534546658396720886e-02,1.978906616568565369e-02,-2.874294854700565338e-02,-6.033466011285781860e-02,-4.163659177720546722e-03,
7.665436714887619019e-02,5.089957639575004578e-02,-1.160866245627403259e-01,5.442083254456520081e-02,-7.125241309404373169e-02,-4.806587472558021545e-02,-9.055927395820617676e-02,
-3.776702284812927246e-02,-7.940985262393951416e-02,2.047192677855491638e-02,-1.539408415555953979e-01,-2.219686983153223991e-03,2.258271127939224243e-01,-1.186308786273002625e-01,
5.492388829588890076e-02,2.394408918917179108e-02,-1.176999434828758240e-01,-1.980105042457580566e-02,-3.712875302881002426e-03,-5.253718793392181396e-02,-5.212402343750000000e-02,
1.367228198796510696e-02,-5.643378570675849915e-02,-3.883669152855873108e-02,-7.044197991490364075e-03,-1.027013659477233887e-01,4.379481822252273560e-02,-1.016943603754043579e-01,
-5.895084515213966370e-02,7.331242412328720093e-02,1.576314680278301239e-02,-7.819274812936782837e-02,8.913628756999969482e-03,1.506098806858062744e-01,-7.465615123510360718e-02,
7.005882263183593750e-02,-2.970950677990913391e-02,-8.449824899435043335e-02,-3.228726238012313843e-02,1.706535369157791138e-01,2.490546740591526031e-02,3.877745941281318665e-02,
2.017061924561858177e-03,-1.592944562435150146e-01,6.741530448198318481e-02,9.846343845129013062e-02,1.462794933468103409e-02,-5.343586578965187073e-02,1.503212153911590576e-01,-
1.301872450858354568e-02,-1.128373518586158752e-01,2.061592787504196167e-02,9.296815097332000732e-02,-4.261142760515213013e-02,-4.334644228219985962e-02,-1.239554397761821747e-02,
-4.140605684369802475e-03,1.424480509012937546e-02,-1.973570033442229033e-04,4.824273660778999329e-02,5.315632000565528870e-02,-6.479137390851974487e-02,-1.836539432406425476e-02,
-7.157939672470092773e-02,6.651265919208526611e-02,-5.302185565233230591e-02,1.442430168390274048e-02,-5.032566189765930176e-02,1.799617521464824677e-02,7.179085165262222290e-02,
-6.197677925229072571e-03,3.954940289258956909e-02,3.789058327674865723e-02,-6.120526418089866638e-02,-4.169476218521595001e-03,5.923751369118690491e-02,-3.960565105080604553e-02,
2.574443630874156952e-02,-2.799658477306365967e-02,-8.234281837940216064e-02,-9.741432964801788330e-03,-7.786218076944351196e-02,5.186859518289566040e-02,5.054449196904897690e-03,
-3.088383935391902924e-03,-7.840178161859512329e-02,5.838330835103988647e-02,4.015968739986419678e-02,-1.274900138378143311e-01,2.433861419558525085e-02,-3.246033936738967896e-02,
-3.361826762557029724e-02,2.643183991312980652e-02,-8.703095838427543640e-03,-7.137302309274673462e-02,4.870987683534622192e-02,1.442028954625129700e-02,4.295565932989120483e-02,
5.954498425126075745e-03,1.145157683640718460e-02,4.102926701307296753e-02,-3.105904161930084229e-02,1.698158681392669678e-01,3.619403764605522156e-02,6.059047207236289978e-02,
-4.232476279139518738e-02,1.354854181408882141e-02,1.238530725240707397e-01,-5.231333896517753601e-02,5.363809689879417419e-02,2.385391853749752045e-03,5.499752610921859741e-02,
6.161770317703485489e-03,3.282377123832702637e-02,4.890036210417747498e-02,9.775875508785247803e-02,4.760027863085269928e-03,3.825763985514640808e-02,-3.383458778262138367e-02,
1.306253718212246895e-03,6.597596406936645508e-02,-2.247449755668640137e-02,4.717150330543518066e-02,9.919639676809310913e-02,-4.877312574535608292e-03,-2.056905999779701233e-02,
-4.749459028244018555e-02,4.462689626961946487e-03,4.128262400627136230e-03,1.694922149181365967e-02,8.639101870357990265e-03,2.159420028328895569e-02,2.255085855722427368e-03,
-7.481036335229873657e-02,6.088894233107566833e-02,3.728802874684333801e-02,5.708771198987960815e-02,-1.559294946491718292e-02,-1.792139606550335884e-03,1.112289652228355408e-01,
3.039635531604290009e-02,9.309043735265731812e-02,-6.206925213336944580e-02,-4.679657518863677979e-02,8.750788867473602295e-02,-5.311881378293037415e-02,9.207917749881744385e-02,
2.038924209773540497e-02,6.834962218999862671e-02,-5.114900693297386169e-02,-7.040191441774368286e-02,-1.811542361974716187e-02,-1.667330972850322723e-02,-8.277214132249355316e-03,
6.826950609683990479e-02,-1.774300634860992432e-02,4.784361273050308228e-02,7.655986398458480835e-02,5.046703293919563293e-02,-2.740393951535224915e-02,4.015256464481353760e-02,
-1.133338175714015961e-02,-6.151570007205009460e-03,7.077731657773256302e-03,-6.516823917627334595e-02,9.257353097200393677e-02,8.797986060380935669e-02,-6.112894043326377869e-02,
1.004165783524513245e-01,4.821348190307617188e-02,-6.324896961450576782e-02,-1.882063783705234528e-02,6.328116171061992645e-03,1.697522960603237152e-02,4.136415198445320129e-03,
5.546069145202636719e-02,1.828926242887973785e-02,-2.859687618911266327e-02,6.859010457992553711e-02,-1.901030540466308594e-02,4.896086081862449646e-02,5.077326297760009766e-02,
-1.441763900220394135e-02,-4.141541197896003723e-02,7.594619691371917725e-02,-5.240573361515998840e-02,4.625801369547843933e-02,9.797531366348266602e-02,2.855722419917583466e-02,
-6.218226999044418335e-02,-1.573888584971427917e-03,6.425109505653381348e-02,-9.449381381273269653e-03,-3.434635698795318604e-02,-2.957388944923877716e-02,1.493020355701446533e-01,
1.303326487541198730e-01,7.003770023584365845e-02,-2.425408177077770233e-02,-6.732917972840368748e-04,9.359774738550186157e-02,8.336251974105834961e-02,5.384314805269241333e-02,
-6.723799277096986771e-03,9.889419376850128174e-02,-4.274208098649978638e-02,-4.693409893661737442e-03,4.018387943506240845e-02,2.084840089082717896e-02,4.713122919201850891e-02,
-4.792880266904830933e-02,-9.673145413398742676e-02,7.334261201322078705e-03,5.466435477137565613e-02,-5.311861634254455566e-02,8.233836293220520020e-02,-2.018595300614833832e-02,
1.833575405180454254e-02,1.347082257270812988e-01,-3.923623263835906982e-02,1.078075319528579712e-01,5.013559013605117798e-02,-1.943327672779560089e-02,-7.175452262163162231e-02,
1.055094301700592041e-01,1.166113838553428650e-01,2.450636588037014008e-02,-7.884114980697631836e-03,8.211289532482624054e-03,1.011007204651832581e-01,1.138686761260032654e-01,
7.909694314002990723e-02,6.478050351142883301e-02,-2.014513127505779266e-02,-2.545722946524620056e-02,-1.980902254581451416e-02,2.968895994126796722e-02,-5.145936831831932068e-02,
7.377932965755462646e-02,8.011596649885177612e-02,7.854298502206802368e-02,5.424100905656814575e-02,4.848717525601387024e-02,-1.709827594459056854e-02,4.159581661224365234e-02,
4.665963351726531982e-02,-1.133664548397064209e-01,7.225158810615539551e-02,6.221282854676246643e-02,-5.034945160150527954e-02,6.408509612083435059e-02,-2.716554701328277588e-02,
2.512012422084808350e-02,-3.131734952330589294e-02,-8.818401023745536804e-03,-1.530346111394464970e-03,7.490257918834686279e-02,-7.151771336793899536e-02,-4.800896346569061279e-02,
6.219639629125595093e-02,-3.132890909910202026e-02,-6.589075922966003418e-02,-3.602637723088264465e-02,-4.410163313150405884e-02,-7.619477692060172558e-04,-4.918198660016059875e-02,
-8.206206560134887695e-02,-5.261722207069396973e-02,1.024446263909339905e-02,5.651144683361053467e-02,-4.450129717588424683e-02,-2.201371453702449799e-02,-7.523690909147262573e-02,
-6.474606692790985107e-02,5.211181007325649261e-03,-1.713315956294536591e-02,2.156339399516582489e-02,-7.153640687465667725e-02,5.445465818047523499e-02,-6.203040853142738342e-02,
6.969179213047027588e-02,-6.340479012578725815e-03,2.329111471772193909e-02,5.856541544198989868e-02,-1.368614472448825836e-02,-2.586551383137702942e-02,1.513446588069200516e-02,
1.623601652681827545e-02,7.757204771041870117e-02,-2.638820931315422058e-02,-5.316630005836486816e-02,5.394636839628219604e-02,3.384453430771827698e-02,2.352860383689403534e-02,
7.052992284297943115e-02,-6.780534237623214722e-02,5.047987401485443115e-02,-4.119354486465454102e-02,-1.550319604575634003e-02,-4.039649665355682373e-02,5.880971625447273254e-02,
3.138891980051994324e-02,2.361096441745758057e-02,-1.759245991706848145e-02,-7.345283031463623047e-02,2.606139704585075378e-02,-8.296515792608261108e-02,5.480417050421237946e-03,
1.334027969278395176e-03,1.132478117942810059e-01,-2.001794613897800446e-02,3.293688222765922546e-02,2.232456766068935394e-02,9.851258993148803711e-02,6.786189973354339600e-02,
-2.224870771169662476e-02,-3.447319567203521729e-02,3.875708952546119690e-02,8.489901199936866760e-03,1.116220466792583466e-02,7.155454158782958984e-02,6.828679144382476807e-02,
-3.057344257831573486e-02,5.870511755347251892e-02,6.676141172647476196e-02,-7.633659243583679199e-02,1.201629042625427246e-01,-1.753357797861099243e-02,6.204451248049736023e-02,
1.061116158962249756e-01,-8.215738087892532349e-02,6.456437706947326660e-02,4.215654730796813965e-02,5.892299115657806396e-02,-4.658072814345359802e-02,-1.003033071756362915e-01,
4.717250540852546692e-02,4.343642666935920715e-02,-6.697432696819305420e-02,-3.990866988897323608e-02,-9.282591193914413452e-02,1.007942017167806625e-02,-4.172290489077568054e-02,
1.514633838087320328e-02,4.382540006190538406e-03,4.693249613046646118e-02,8.661244809627532959e-02,3.029277548193931580e-02,2.953092381358146667e-02,3.861766681075096130e-02,
-7.260640710592269897e-02,1.103915972635149956e-03,-1.658667996525764465e-02,1.343803852796554565e-01,1.446631085127592087e-02,6.713854521512985229e-02,7.483532279729843140e-02,
8.166398108005523682e-02,1.172973122447729111e-02,-2.933061122894287109e-02,4.033621773123741150e-02,-5.765127018094062805e-02,6.475172936916351318e-02,4.458921775221824646e-02,
1.102756261825561523e-01,-4.243548214435577393e-02,6.944612413644790649e-02,4.562346637248992920e-02,1.001912876963615417e-01,-2.045205980539321899e-02,-7.913798838853836060e-02,
1.353364810347557068e-02,2.577766403555870056e-02,1.478671189397573471e-02,3.170981258153915405e-02,6.997957825660705566e-02,-4.829580336809158325e-02,-1.149346213787794113e-02,
3.161600604653358459e-02,1.081860065460205078e-01,5.183588340878486633e-02,-1.475572288036346436e-01,-1.918798498809337616e-02,3.946932777762413025e-02,3.137254714965820312e-02,
2.886447310447692871e-02,7.795655727386474609e-02,2.732498012483119965e-02,4.652242362499237061e-02,2.009290270507335663e-03,6.195311620831489563e-02,1.011933833360671997e-01,
5.728999152779579163e-03,1.373201161623001099e-01,-3.489050432108342648e-04,2.773568034172058105e-02,7.089063525199890137e-02,-6.802818924188613892e-02,6.521177012473344803e-03,
-7.121051847934722900e-02,5.065947771072387695e-02,-1.476159039884805679e-02,-8.147177100181579590e-02,-1.982628256082534790e-01,3.023260971531271935e-03,7.284970581531524658e-02,
6.205874308943748474e-02,6.055057793855667114e-02,2.793622203171253204e-02,-2.284636721014976501e-02,5.367483198642730713e-02,7.084387540817260742e-02,1.145746037364006042e-01,
1.057146936655044556e-01,-6.759325414896011353e-02,-5.583898723125457764e-02,8.569002151489257812e-03,2.513875719159841537e-03,1.951976679265499115e-02,4.594804346561431885e-02,
-5.635059624910354614e-02,6.613083183765411377e-02,1.658253930509090424e-02,-8.589083701372146606e-02,9.126362949609756470e-02,5.020377039909362793e-02,3.965405374765396118e-02,
-2.848473563790321350e-02,3.135524690151214600e-02,-7.122921198606491089e-02,8.328799903392791748e-02,1.583544760942459106e-01,9.577668458223342896e-02,5.670806393027305603e-02,
-2.621006220579147339e-02,7.542788237333297729e-02,3.799026366323232651e-03,-2.519311010837554932e-02,-5.156160145998001099e-02,7.587019354104995728e-02,1.809526979923248291e-02,
3.804714232683181763e-02,-6.890682131052017212e-02,6.977432966232299805e-02,-2.139179501682519913e-03,-8.849477022886276245e-02,3.758643567562103271e-02,7.007133215665817261e-02,
-5.236079916357994080e-02,4.880674555897712708e-02,-8.302938193082809448e-02,-1.599521003663539886e-02,-3.105362877249717712e-02,-3.054819628596305847e-02,-1.378135941922664642e-02,
-4.746026359498500824e-03,-4.030356928706169128e-02,-5.427060648798942566e-02,-6.117286160588264465e-02,-7.410801202058792114e-02,-7.787936832755804062e-03,-3.520580008625984192e-02,
5.075036361813545227e-02,3.692506998777389526e-02,5.607869848608970642e-02,-8.729551732540130615e-02,-2.476978674530982971e-02,-1.668977439403533936e-01,4.562021791934967041e-02,
3.011094219982624054e-02,-3.227486461400985718e-02,-1.851303316652774811e-02,-3.878822550177574158e-02,-4.464435856789350510e-03,3.633183613419532776e-02,8.622811734676361084e-02,
3.088264912366867065e-02,4.638204351067543030e-02,7.014505565166473389e-03,-9.080654382705688477e-02,7.607226818799972534e-02,-3.454948961734771729e-02,-4.129104688763618469e-02,
7.458892464637756348e-02,-6.423061341047286987e-02,6.408938020467758179e-02,-5.215925350785255432e-02,2.091043395921587944e-03,-4.703599214553833008e-02,3.461997210979461670e-02,
-4.719120264053344727e-02,-2.186794951558113098e-02,-1.216866634786128998e-02,-6.243968755006790161e-02,-6.798493862152099609e-02,-3.839738294482231140e-02,6.781936436891555786e-02,
6.731081008911132812e-02,2.231457829475402832e-02,7.063604891300201416e-02,1.079031378030776978e-01,8.854031562805175781e-02,6.884270906448364258e-02,-8.467097580432891846e-02,
-4.682156443595886230e-02,2.651384659111499786e-02,1.309384703636169434e-01,8.076188713312149048e-02,-7.419339567422866821e-02,-5.500463396310806274e-02,1.278067082166671753e-01,
-5.304448306560516357e-02,7.686779648065567017e-02,-5.790121853351593018e-02,2.751155942678451538e-02,6.992175709456205368e-03,-3.373100608587265015e-02,2.571278810501098633e-02,
8.388257026672363281e-02,-8.524601906538009644e-02,2.512555196881294250e-02,-1.661751605570316315e-02,9.331481531262397766e-03,1.156353726983070374e-01,1.310156099498271942e-02,
9.241604059934616089e-02,-4.175195470452308655e-02,-3.037370741367340088e-02,8.757902681827545166e-02,-9.787384420633316040e-02,1.077812463045120239e-01,-1.115058809518814087e-01,
-7.120175659656524658e-02,-6.272296607494354248e-02,7.889505475759506226e-02,1.469163000583648682e-01,-2.248195186257362366e-02,-4.356215894222259521e-02,1.785883754491806030e-01,
3.577545518055558205e-03,-5.778249725699424744e-02,7.094090431928634644e-02,-5.637056380510330200e-02,-1.017162948846817017e-01,2.699757553637027740e-02,-5.389559268951416016e-02,
-4.181047435849905014e-03,1.513819396495819092e-01,9.370584040880203247e-02,-1.003154367208480835e-02,-1.265776809304952621e-02,7.592727988958358765e-02,1.154355332255363464e-01,
1.321008652448654175e-01,3.949474170804023743e-02,-3.710571303963661194e-02,9.676710516214370728e-02,-9.097537957131862640e-03,6.966968625783920288e-02,-1.061973441392183304e-02,
1.726189255714416504e-02,2.408722043037414551e-02,8.126267790794372559e-02,9.474140405654907227e-02,4.502560570836067200e-02,-4.783178120851516724e-02,-2.501069381833076477e-02,
1.290683913975954056e-02,5.651337560266256332e-03,1.302099823951721191e-01,-5.489886552095413208e-02,1.229848433285951614e-02,6.839930266141891479e-02,-5.880110338330268860e-02,
8.575194329023361206e-02,-5.545796453952789307e-02,6.852559000253677368e-02,-6.418018788099288940e-02,9.127573668956756592e-02,-7.630331814289093018e-02,6.944067031145095825e-02,
3.829396888613700867e-02,1.069225743412971497e-01,8.097507059574127197e-02,4.167558625340461731e-03,-7.043188810348510742e-02,3.143320605158805847e-02,1.198992207646369934e-01,
4.914227128028869629e-02,-3.030767291784286499e-02,-6.735964864492416382e-02,6.255759298801422119e-02,9.877637028694152832e-02,2.271769754588603973e-02,7.376700639724731445e-02,
-1.310482621192932129e-01,1.962084509432315826e-02,-8.128982782363891602e-02,-6.778030842542648315e-02,5.460041016340255737e-02,6.365029513835906982e-02,5.140144005417823792e-02,
2.815939486026763916e-02,-7.520172744989395142e-02,6.809293408878147602e-04,-5.424340441823005676e-02,-7.567243278026580811e-02,4.674951732158660889e-02,8.433122187852859497e-02,
5.814304202795028687e-02,6.797809898853302002e-02,-5.430134758353233337e-02,5.246652290225028992e-02,-5.599909927695989609e-03,8.102339506149291992e-02,-2.194933779537677765e-02,
3.517503663897514343e-02,1.658646389842033386e-02,4.150189459323883057e-02,-4.267964512109756470e-02,2.513171546161174774e-02,3.044553101062774658e-02,6.151051726192235947e-03,
-3.606676682829856873e-02,7.758956635370850563e-04,-6.784506142139434814e-02,1.271437946707010269e-02,-2.677857130765914917e-02,1.367111224681138992e-02,4.254575446248054504e-02,
-1.087287440896034241e-01,-6.342431902885437012e-02,-7.583431899547576904e-03,-1.203061267733573914e-01,2.781554125249385834e-02,6.631432473659515381e-02,2.937513776123523712e-02,
-2.359716035425662994e-02,6.400409340858459473e-02,-6.603322923183441162e-02,-7.079274952411651611e-02,3.365625068545341492e-02,-1.631179451942443848e-02,-4.945258796215057373e-02,
-2.435162477195262909e-02,3.106201626360416412e-02,6.160402297973632812e-02,3.327911347150802612e-02,5.980977788567543030e-02,-2.896342612802982330e-02,-8.863159269094467163e-02,
5.057241395115852356e-02,-1.888265646994113922e-02,-6.063889339566230774e-02,-1.712925545871257782e-02,-7.963507622480392456e-02,8.284858614206314087e-02,-1.189168449491262436e-02,
-1.462826691567897797e-02,-1.720691770315170288e-01,1.952100545167922974e-02,2.211090922355651855e-02,3.681786358356475830e-02,1.311334874480962753e-02,2.537409961223602295e-02,
-8.107095956802368164e-02,4.700556024909019470e-02,7.994032651185989380e-02,-1.260470785200595856e-02,1.609306037425994873e-02,3.305606544017791748e-02,-9.717502444982528687e-02,
-3.072763048112392426e-02,5.121522396802902222e-02,-3.340873122215270996e-02,-6.759008974768221378e-04,-8.400946110486984253e-02,-1.586755737662315369e-02,-5.105666816234588623e-02,
6.793161388486623764e-03,8.889296650886535645e-02,-1.022732537239789963e-02,6.491796672344207764e-02,-2.501457929611206055e-02,5.680393427610397339e-02,-6.395982950925827026e-02,
-2.133028395473957062e-02,2.054947428405284882e-02,5.719151720404624939e-02,3.987025003880262375e-03,-5.301008000969886780e-02,4.512894153594970703e-02,5.137940868735313416e-02,
-3.335743770003318787e-02,-6.200129538774490356e-02,3.895851224660873413e-02,-2.508547529578208923e-02,-2.413772232830524445e-02,8.093083649873733521e-02,1.487272977828979492e-01,
-1.180959679186344147e-02,-1.086404472589492798e-01,-1.891573541797697544e-03,-6.011328473687171936e-02,1.296936627477407455e-02,6.019813939929008484e-02,1.575069315731525421e-02,
1.100012287497520447e-01,-5.101504921913146973e-02,1.127958483994007111e-02,3.043618611991405487e-02,-3.336315974593162537e-02,6.128806620836257935e-02,7.337853312492370605e-02,
9.863805957138538361e-03,-2.104437910020351410e-02,3.584367409348487854e-02,-1.791656762361526489e-02,5.003306269645690918e-02,1.628878712654113770e-02,1.796206459403038025e-02,
3.185296431183815002e-02,-1.047636382281780243e-02,-1.843356639146804810e-01,-9.812616556882858276e-02,3.551011160016059875e-02,-5.954986065626144409e-02,1.047169342637062073e-01,
5.910392850637435913e-03,2.144479379057884216e-02,5.907758604735136032e-03,-7.710769027471542358e-02,1.845724694430828094e-02,6.634300202131271362e-02,7.471431046724319458e-02,
-6.044784188270568848e-02,3.184282407164573669e-02,2.300885971635580063e-03,-1.026968881487846375e-01,1.135559156537055969e-01,1.356199849396944046e-02,6.578022986650466919e-02,
1.063548028469085693e-01,6.086587533354759216e-02,1.433716863393783569e-01,1.307456046342849731e-01,-2.674191631376743317e-02,-2.258234657347202301e-02,9.886803478002548218e-02,
7.290986925363540649e-02,-2.532693184912204742e-02,-2.910093404352664948e-02,9.864115715026855469e-02,4.794018343091011047e-02,7.791323214769363403e-02,6.988870352506637573e-02,
1.076145246624946594e-01,-4.021542519330978394e-02,-7.763721048831939697e-02,-7.564893364906311035e-02,-2.016341686248779297e-02,-1.494789589196443558e-02,-4.918720573186874390e-02,
9.242911473847925663e-04,-1.249012257903814316e-02,-2.656402066349983215e-02,-5.465167760848999023e-02,1.070431713014841080e-02,-8.408291637897491455e-02,5.985629186034202576e-02,
2.145610563457012177e-02,-1.618041470646858215e-02,8.763495832681655884e-02,-9.746615774929523468e-03,6.816872209310531616e-02,2.521763555705547333e-02,6.716063711792230606e-03,
-2.366117946803569794e-02,4.676903784275054932e-02,1.799362525343894958e-02,4.703707993030548096e-02,-4.406478255987167358e-02,5.131556093692779541e-02,-5.657796189188957214e-02,
6.773138046264648438e-02,1.864051446318626404e-02,-2.318406663835048676e-02,-1.520006358623504639e-01,-5.133569985628128052e-02,-2.552445791661739349e-02,-3.623186051845550537e-02,
7.294765114784240723e-02,-5.844810977578163147e-03,-5.874840915203094482e-02,-6.216295436024665833e-02,6.306374073028564453e-02,-3.417405113577842712e-02,6.250581145286560059e-02,
6.280525028705596924e-02,-8.288952708244323730e-02,1.474109385162591934e-02,2.997354604303836823e-02,-5.272237211465835571e-02,-6.455022841691970825e-03,-8.896933495998382568e-02,
7.795579731464385986e-02,8.819302171468734741e-02,-5.328794196248054504e-02,8.057344704866409302e-02,7.397997379302978516e-02,-1.613639295101165771e-02,8.871732652187347412e-02,
3.268384560942649841e-02,-9.801620990037918091e-02,2.444124780595302582e-02,2.465232973918318748e-03,7.292705029249191284e-02,3.058303520083427429e-02,1.155541685875505209e-04,
6.306239403784275055e-03,5.707732215523719788e-02,-2.264969050884246826e-02,-6.683355569839477539e-02,3.826130926609039307e-02,1.021365970373153687e-01,1.937582492828369141e-01,
6.097465753555297852e-02,9.088671952486038208e-02,5.182164534926414490e-02,5.032343417406082153e-02,1.029957979917526245e-01,1.123497448861598969e-02,-7.336058653891086578e-03,
2.719249203801155090e-02,-1.672159694135189056e-02,2.117907814681529999e-02,4.620463028550148010e-02,7.101409137248992920e-02,-4.094745591282844543e-02,4.117503389716148376e-02,
1.817002892494201660e-02,3.517701849341392517e-02,-1.813201978802680969e-02,9.348216652870178223e-02,-1.001849249005317688e-01,-6.077853217720985413e-02,-6.559968739748001099e-02,
3.517598286271095276e-02,8.074115961790084839e-02,-8.652588725090026855e-02,-7.744128257036209106e-02,-2.269146218895912170e-02,9.948038309812545776e-02,-2.579372189939022064e-02,
8.754555881023406982e-02,8.853908628225326538e-02,-5.269804224371910095e-02,-4.953461233526468277e-03,-4.678039625287055969e-02,5.003248155117034912e-02,8.522780612111091614e-03,
4.765458405017852783e-03,-3.624688833951950073e-02,-7.913936674594879150e-02,-7.135985419154167175e-03,1.558981537818908691e-01,-3.320831805467605591e-02,1.051198132336139679e-02,
-2.396658994257450104e-02,4.527871683239936829e-02,8.101765066385269165e-02,9.957606345415115356e-02,4.509126767516136169e-02,4.719731584191322327e-02,1.112595945596694946e-02,
5.336195230484008789e-02,-2.505778707563877106e-02,8.192032575607299805e-02,6.045707687735557556e-02,7.444984465837478638e-02,8.881212025880813599e-02,1.940544135868549347e-02,
-5.083550140261650085e-02,8.469462394714355469e-02,-6.215249188244342804e-03,-5.184920132160186768e-02,1.893973350524902344e-02,-1.008803446893580258e-04,7.085460424423217773e-02,
3.286878019571304321e-02,-1.677013002336025238e-02,3.965212777256965637e-02,-6.817673891782760620e-02,-1.719933003187179565e-02,9.090284816920757294e-03,8.221289515495300293e-02,
2.054647728800773621e-02,3.255193680524826050e-02,-1.105477660894393921e-02,-5.749946460127830505e-02,-9.603466838598251343e-03,2.605435252189636230e-02,3.332792222499847412e-02,
4.759711399674415588e-02,-7.542034238576889038e-02,5.625383555889129639e-02,1.858648844063282013e-02,1.045773830264806747e-02,-3.747217729687690735e-02,9.296727366745471954e-03,
4.039154574275016785e-02,1.091743446886539459e-02,2.624508738517761230e-02,-1.514890417456626892e-02,-7.284156233072280884e-02,-9.546065330505371094e-02,-2.035926841199398041e-02,
-3.425167873501777649e-02,3.040123730897903442e-03,-1.476869825273752213e-02,-8.122851699590682983e-02,-3.708655387163162231e-02,6.098804250359535217e-02,-2.778521552681922913e-02,
4.429741762578487396e-03,-8.185850083827972412e-02,2.860357426106929779e-02,-6.226643547415733337e-02,1.021367833018302917e-01,6.925316900014877319e-02,1.259089913219213486e-02,
6.174769252538681030e-02,5.521142110228538513e-02,-5.209600552916526794e-02,-1.705492846667766571e-02,-1.263453718274831772e-02,1.539720967411994934e-02,-2.939034998416900635e-02,
3.690309822559356689e-02,6.188523024320602417e-02,7.092986255884170532e-02,5.664745718240737915e-02,5.733326822519302368e-02,-5.748488008975982666e-02,5.859727412462234497e-02,
-3.212876617908477783e-02,-4.729276895523071289e-02,-3.278379142284393311e-02,-1.638806541450321674e-03,-3.138229623436927795e-02,3.517708554863929749e-02,-6.585545837879180908e-02,
3.769716247916221619e-02,1.426382064819335938e-01,-8.696316927671432495e-02,-4.861333966255187988e-02,-5.011951550841331482e-02,7.281313184648752213e-03,-8.426034450531005859e-02,
3.620995208621025085e-02,-7.719185203313827515e-02,-5.042580515146255493e-02,-1.938180811703205109e-02,-4.440814256668090820e-02,-5.727474763989448547e-02,2.645658515393733978e-02,
1.310010626912117004e-02,-9.260741621255874634e-02,-5.535683408379554749e-02,3.813150525093078613e-02,-8.393872529268264771e-02,-1.206997334957122803e-01,-6.109859421849250793e-02,
-1.128139421343803406e-01,4.000353813171386719e-02,-2.776712737977504730e-02,-6.887577474117279053e-02,4.216256365180015564e-02,-7.705418020486831665e-02,-7.353518903255462646e-02,
1.241466850042343140e-01,4.454789683222770691e-02,-3.927911818027496338e-02,-1.068011298775672913e-01,-7.236460596323013306e-02,-1.514155883342027664e-02,-2.224449440836906433e-02,
-8.698022365570068359e-02,9.203227609395980835e-02,-5.207585170865058899e-02,-9.548892267048358917e-03,-1.775210909545421600e-02,3.556585172191262245e-03,9.311331808567047119e-02,
-1.256638318300247192e-01,5.749237257987260818e-03,-9.637424722313880920e-03,-7.156077027320861816e-02,2.295958995819091797e-02,-1.332268118858337402e-01,-1.758502274751663208e-01,
-8.043699711561203003e-02,5.084653943777084351e-02,-4.848157614469528198e-02,-6.580939888954162598e-02,4.095488041639328003e-02,5.931656435132026672e-02,-1.078380867838859558e-01,
-6.426285952329635620e-02,-7.359316223300993443e-04,-1.363812237977981567e-01,-8.072916418313980103e-02,5.919602140784263611e-02,9.662347845733165741e-03,3.462456911802291870e-02,
3.433118015527725220e-02,4.714026302099227905e-02,-2.357127517461776733e-02,-1.992936804890632629e-02,2.935529872775077820e-02,-2.860363945364952087e-02,4.618786647915840149e-02,
5.470842495560646057e-02,-1.994518563151359558e-02,-2.507692389190196991e-02,-4.449821263551712036e-02,-2.729265019297599792e-02,5.656953155994415283e-02,8.168427646160125732e-02,
-5.447528883814811707e-02,5.576399713754653931e-02,-4.107182845473289490e-02,-3.477242588996887207e-02,2.429087460041046143e-02,-6.496047228574752808e-02,8.737129718065261841e-02,
6.395590025931596756e-03,-4.333973675966262817e-02,-8.202133327722549438e-02,-1.645514927804470062e-02,7.345219701528549194e-02,6.191365420818328857e-02,7.059574872255325317e-02,
-1.495046317577362061e-01,1.107440446503460407e-03,4.262410511728376150e-04,-4.932256415486335754e-02,-5.056603252887725830e-02,-2.276740223169326782e-02,2.355492301285266876e-02,
-6.514483690261840820e-02,-5.052480101585388184e-02,2.276131510734558105e-02,-2.430536085739731789e-03,-3.973379731178283691e-02,3.739845007658004761e-02,3.169458592310547829e-03,
2.746475301682949066e-02,2.747798897325992584e-02,-5.987267941236495972e-02,-6.948047876358032227e-02,5.838990584015846252e-02,1.251896750181913376e-02,6.029759068042039871e-03,
6.623600423336029053e-02,-2.197401225566864014e-02,4.947294015437364578e-03,-5.072347447276115417e-02,-7.971544563770294189e-02,-2.024974673986434937e-02,-3.994169086217880249e-02,
4.749171063303947449e-02,-6.098243873566389084e-03,4.614607617259025574e-02,-4.881341010332107544e-02,1.314644236117601395e-02,8.017583191394805908e-02,7.456209510564804077e-02,
2.760348375886678696e-03,3.897889330983161926e-02,3.362919390201568604e-02,-6.252465397119522095e-02,2.393022738397121429e-02,7.012990117073059082e-02,9.413008391857147217e-02,
4.965662211179733276e-02,1.656010150909423828e-01,5.863770470023155212e-02,1.261894702911376953e-01,-6.518607586622238159e-02,-2.677405625581741333e-02,1.355676054954528809e-01,
-1.506481133401393890e-02,4.425356630235910416e-03,3.283984214067459106e-02,9.928568452596664429e-02,5.168962851166725159e-02,-4.015512391924858093e-02,-4.968988895416259766e-02,
1.905237697064876556e-02,-8.389353007078170776e-02,9.392166882753372192e-02,-1.817563921213150024e-02,6.316173821687698364e-02,1.200034171342849731e-01,2.902958728373050690e-02,
1.056007519364356995e-01,-2.680637501180171967e-02,2.392025105655193329e-02,3.549898788332939148e-02,7.720415294170379639e-02,7.870852947235107422e-02,-2.620139159262180328e-02,
8.781635202467441559e-03,1.492531131953001022e-02,1.329139713197946548e-02,1.929592713713645935e-02,-7.122096419334411621e-02,6.563574541360139847e-03,-1.048929840326309204e-01,
1.190507039427757263e-02,5.754203349351882935e-02,9.082429856061935425e-02,6.746841594576835632e-03,-2.242021635174751282e-02,9.348249435424804688e-02,1.388880703598260880e-02,
-1.782079599797725677e-02,5.721722543239593506e-02,4.241653159260749817e-02,-6.284264475107192993e-02,-4.369770362973213196e-02,1.372875124216079712e-01,-1.398641988635063171e-02,
1.435580477118492126e-02,5.522309243679046631e-02,-4.814139753580093384e-02,6.539343297481536865e-02,7.542463392019271851e-02,-4.730233550071716309e-02,5.498337000608444214e-02,
1.872431859374046326e-02,-4.949183017015457153e-02,1.300996448844671249e-02,1.133933514356613159e-01,1.218429505825042725e-01,9.913447499275207520e-02,1.453459113836288452e-01,
-5.783721804618835449e-03,-1.026159077882766724e-01,-2.170995576307177544e-03,5.598093941807746887e-02,1.709162071347236633e-02,1.601868122816085815e-01,-5.753714218735694885e-02,
1.119876801967620850e-01,3.146060928702354431e-02,-1.518355961889028549e-02,-5.888134613633155823e-02,-1.030900329351425171e-01,-1.960916072130203247e-02,-2.078682882711291313e-03,
-2.454600762575864792e-03,-2.235074341297149658e-02,8.234023302793502808e-02,3.038824163377285004e-02,-4.998270794749259949e-02,3.204987943172454834e-02,1.082259565591812134e-01,
4.037581011652946472e-02,-1.444527320563793182e-02,7.961934804916381836e-02,1.403748802840709686e-02,4.531783238053321838e-02,6.076168268918991089e-02,1.216894537210464478e-01,
2.293089404702186584e-02,-3.308479487895965576e-02,1.482823789119720459e-01,8.677436038851737976e-03,-4.750774428248405457e-02,-6.280495971441268921e-02,-1.977699343115091324e-03,
-3.927950561046600342e-02,1.433578133583068848e-01,9.381726384162902832e-02,-1.318071633577346802e-01,5.683695152401924133e-02,5.438544601202011108e-02,6.389591097831726074e-02,
8.137925714254379272e-02,1.088739037513732910e-01,9.255204931832849979e-04,-3.175556287169456482e-02,1.676182597875595093e-01,-5.473246332257986069e-03,1.640142202377319336e-01,
-9.007061831653118134e-03,-1.649956777691841125e-02,7.654504384845495224e-03,1.875120401382446289e-01,5.725926160812377930e-02,-3.656813502311706543e-02,-4.789067432284355164e-02,
1.216055676341056824e-01,5.834000185132026672e-02,-9.232228621840476990e-03,-5.347983166575431824e-02,-3.948454558849334717e-02,-2.843989990651607513e-02,-5.035707727074623108e-03,
4.538594186305999756e-02,-3.854475542902946472e-02,4.026380926370620728e-02,-1.080671884119510651e-02,-1.467751432210206985e-02,-5.191271379590034485e-02,3.652165085077285767e-02,
-2.419650554656982422e-02,-5.559688434004783630e-04,-6.492569297552108765e-02,-4.619002342224121094e-02,8.930478245019912720e-03,9.979064017534255981e-02,-9.759438224136829376e-03,
-2.051835320889949799e-02,4.161295667290687561e-02,3.610727936029434204e-02,9.463032707571983337e-03,5.008169263601303101e-02,-4.832808673381805420e-02,-1.394282153341919184e-04,
5.757706984877586365e-02,-4.252490401268005371e-02,1.283805537968873978e-02,-9.886070340871810913e-02,-8.329188078641891479e-02,-6.262045353651046753e-02,7.539241109043359756e-03,
-4.972277954220771790e-02,-8.953119814395904541e-02,6.927409023046493530e-02,8.211502432823181152e-02,8.702798187732696533e-02,6.142993643879890442e-02,7.600810378789901733e-02,
-7.757754623889923096e-02,5.838937312364578247e-02,1.022339090704917908e-01,-1.167520135641098022e-02,5.601299926638603210e-02,1.393996551632881165e-02,-6.978932023048400879e-02,
5.161443725228309631e-02,8.219825476408004761e-02,4.120435193181037903e-02,2.895465493202209473e-02,-3.599797934293746948e-02,7.929163426160812378e-02,3.922418877482414246e-02,
1.024284493178129196e-02,-6.561084091663360596e-02,-7.281272113323211670e-02,3.998634964227676392e-02,1.547636277973651886e-02,-1.226058113388717175e-03,5.248541757464408875e-02,
1.423738151788711548e-01,3.915113210678100586e-02,9.228106588125228882e-02,3.455938398838043213e-02,-1.927923783659934998e-02,-2.510795369744300842e-02,6.680426746606826782e-02,
-2.430604584515094757e-02,2.310806419700384140e-03,-2.730088122189044952e-02,2.983868308365345001e-02,-8.758401870727539062e-02,-8.693903684616088867e-02,8.664406090974807739e-02,
1.141410507261753082e-02,6.790145486593246460e-02,-4.125127103179693222e-03,-7.813210785388946533e-02,9.923388063907623291e-02,5.792143288999795914e-03,-1.290711201727390289e-02,
-3.060629963874816895e-02,6.275244057178497314e-02,4.326143488287925720e-02,4.944676533341407776e-02,9.551285766065120697e-03,-1.508948486298322678e-02,3.144335374236106873e-02,
-9.286621585488319397e-03,2.015154249966144562e-02,3.505454957485198975e-02,2.800384163856506348e-02,8.870624005794525146e-03,-3.363045677542686462e-02,-1.547478046268224716e-02,
2.307646349072456360e-02,-4.119708761572837830e-02,-9.919942170381546021e-02,-3.848429024219512939e-02,1.092420220375061035e-01,1.376115903258323669e-02,-3.945687413215637207e-02,
-5.367077142000198364e-02,1.097542326897382736e-02,-8.729507029056549072e-02,1.163297668099403381e-01,-1.316897664219141006e-02,8.732728660106658936e-02,7.426394522190093994e-02,
2.520837076008319855e-02,-2.666863612830638885e-02,6.780587136745452881e-02,-6.015579774975776672e-02,6.417021900415420532e-02,6.745969504117965698e-02,6.403388455510139465e-03,
1.319815590977668762e-02,1.749686896800994873e-02,1.046737581491470337e-01,2.087501622736454010e-02,5.612028762698173523e-02,-5.326677486300468445e-02,1.867407932877540588e-02,
6.951697915792465210e-02,4.771029949188232422e-02,-2.819711156189441681e-02,-6.785026937723159790e-02,-1.324116531759500504e-02,3.682995960116386414e-02,-1.654491201043128967e-02,
-1.303218901157379150e-01,-3.745627030730247498e-02,1.929096877574920654e-02,-3.933372348546981812e-02,-8.786465972661972046e-02,-3.515630215406417847e-02,-3.896749392151832581e-02,
-6.319633685052394867e-03,7.606507837772369385e-02,6.734036654233932495e-02,1.583248935639858246e-02,-2.408562786877155304e-02,-7.061668485403060913e-02,9.551415219902992249e-03,
3.485822677612304688e-02,-7.345450669527053833e-02,6.378592550754547119e-02,-1.010723561048507690e-01,5.005280673503875732e-02,-4.738888144493103027e-02,-2.694440260529518127e-02,
-7.685662060976028442e-02,-3.566622361540794373e-02,-4.926066473126411438e-02,-4.261771216988563538e-02,3.385939449071884155e-02,-9.854936599731445312e-02,2.776518231257796288e-03,
-7.518077641725540161e-02,1.399102434515953064e-02,2.200842835009098053e-02,-2.428432181477546692e-02,5.661850329488515854e-03,-6.072170659899711609e-02,-5.906297639012336731e-02,
-1.331203803420066833e-02,6.374069303274154663e-02,8.784388005733489990e-02,-5.546815693378448486e-02,5.457286536693572998e-02,2.422612719237804413e-02,6.705407798290252686e-02,
1.417702180333435535e-03,3.208585083484649658e-02,-1.367779728025197983e-02,-7.126867026090621948e-02,9.156198939308524132e-04,7.892753183841705322e-02,-6.671090424060821533e-02,
-3.300289623439311981e-03,-1.386730838567018509e-02,2.998633310198783875e-02,6.400811672210693359e-02,3.286528587341308594e-02,-8.433725684881210327e-02,7.991817593574523926e-02,
4.278296977281570435e-02,-7.813722477294504642e-04,-4.743684828281402588e-02,-2.928062342107295990e-02,-1.286490354686975479e-02,-4.485249146819114685e-02,5.690851807594299316e-02,
-2.779367566108703613e-02,-9.750645607709884644e-02,-1.457120478153228760e-02,9.613867849111557007e-02,8.425731211900711060e-02,9.401818364858627319e-02,5.761278420686721802e-02,
6.328142434358596802e-02,6.234514992684125900e-03,-4.259420558810234070e-02,-6.344088912010192871e-02,5.874918308109045029e-03,7.284493744373321533e-02,-7.340107113122940063e-02,
3.493413701653480530e-02,6.237814575433731079e-02,5.853174626827239990e-02,6.762505043298006058e-03,8.247619122266769409e-02,6.344539579004049301e-04,9.501776844263076782e-02,
4.545889049768447876e-02,1.334739197045564651e-02,-7.021545618772506714e-02,4.279952868819236755e-02,-4.007465764880180359e-02,7.502943277359008789e-02,-4.550465568900108337e-02,
1.059735119342803955e-01,-7.122428715229034424e-02,-8.903620764613151550e-03,1.036183387041091919e-01,-3.780705854296684265e-02,9.053948521614074707e-02,7.212425023317337036e-02,
7.246461510658264160e-02,9.918836504220962524e-02,-8.921284973621368408e-02,2.726145647466182709e-02,2.259279973804950714e-02,1.229760721325874329e-01,5.089063942432403564e-02,
-5.370832234621047974e-02,6.410475075244903564e-02,3.388558328151702881e-02,6.885910034179687500e-02,1.381452232599258423e-01,2.808428555727005005e-02,1.227785199880599976e-01,
-3.675613924860954285e-02,4.114669561386108398e-02,3.465622290968894958e-02,-1.809898763895034790e-02,4.193102940917015076e-02,7.296887040138244629e-02,7.808904349803924561e-02,
-8.006232976913452148e-02,-4.321518540382385254e-02,4.721434786915779114e-02,-3.972437977790832520e-02,-8.852827362716197968e-03,2.591378055512905121e-02,-8.704653382301330566e-02,
8.279540389776229858e-02,7.995104789733886719e-02,3.564252331852912903e-02,3.364136442542076111e-02,4.141135886311531067e-02,-3.029404580593109131e-02,-9.986840188503265381e-03,
1.210740115493535995e-02,6.203037127852439880e-02,2.598807774484157562e-02,5.463102832436561584e-02,-2.037035673856735229e-02,1.525711864233016968e-01,4.072855040431022644e-02,
-1.236872375011444092e-02,7.260405272245407104e-02,1.389649212360382080e-01,4.040626436471939087e-02,1.379966884851455688e-01,-4.628975689411163330e-02,1.417337451130151749e-02,
-1.518914755433797836e-02,-1.131154298782348633e-01,3.073264658451080322e-02,-3.991441801190376282e-02,8.035048097372055054e-02,6.429929286241531372e-02,3.774214535951614380e-02,
-6.273609399795532227e-02,3.218949586153030396e-02,3.413853002712130547e-03,-4.006679356098175049e-02,1.049072965979576111e-01,2.180703170597553253e-02,5.095968022942543030e-02,
-8.735433220863342285e-02,4.602506756782531738e-02,1.911079138517379761e-01,9.897864423692226410e-03,5.107475072145462036e-02,-1.601150445640087128e-02,1.127923876047134399e-01,
1.414072513580322266e-01,-8.936177194118499756e-02,1.112840473651885986e-01,5.840964242815971375e-02,7.777148485183715820e-02,1.153894662857055664e-01,1.612915657460689545e-02,
1.123517453670501709e-01,6.126744672656059265e-03,3.080707788467407227e-02,1.052904129028320312e-01,5.213506892323493958e-02,-1.600756682455539703e-02,6.358323991298675537e-02,
9.983957558870315552e-02,2.836707979440689087e-03,1.721917092800140381e-02,-4.428339749574661255e-02,1.054713875055313110e-01,2.131576463580131531e-02,5.301533266901969910e-02,
2.885059639811515808e-02,3.350494895130395889e-03,-9.245992638170719147e-03,-8.184100687503814697e-02,4.732878133654594421e-02,1.630296260118484497e-01,-3.683640062808990479e-02,
-1.054784189909696579e-02,-5.869377404451370239e-03,-3.055361844599246979e-02,1.307554692029953003e-01,-4.827160760760307312e-02,2.313690260052680969e-02,-9.108430892229080200e-02,
7.176576554775238037e-02,7.629893720149993896e-02,1.085561737418174744e-01,7.908459007740020752e-02,9.577251970767974854e-02,-3.086865320801734924e-02,5.866380408406257629e-02,
2.851466834545135498e-02,1.521815638989210129e-02,7.566436193883419037e-03,9.375370293855667114e-02,8.897988498210906982e-02,4.134608060121536255e-02,-7.084143161773681641e-02,
1.002675294876098633e-01,-8.768329024314880371e-02,5.585169419646263123e-02,7.920125871896743774e-02,3.320140019059181213e-02,1.591168157756328583e-02,6.486257538199424744e-03,
-5.141145084053277969e-03,-1.324563170783221722e-03,2.290446683764457703e-02,-3.919679298996925354e-02,-7.647988200187683105e-02,6.054652854800224304e-02,5.634899251163005829e-03,
-4.144508857280015945e-04,-8.482509106397628784e-02,-2.250039397040382028e-04,6.016290187835693359e-02,8.779299259185791016e-02,2.916416525840759277e-02,6.819885969161987305e-02,
-8.513858914375305176e-02,8.580729365348815918e-02,1.212352588772773743e-01,-4.203141853213310242e-02,2.305341698229312897e-02,6.024934723973274231e-02,-2.073061838746070862e-02,
6.790650635957717896e-02,8.966179192066192627e-02,1.157611906528472900e-01,-6.540373712778091431e-02,1.201072111725807190e-01,-9.213124401867389679e-03,-6.312960293143987656e-03,
-5.782751366496086121e-02,2.085908129811286926e-02,-6.812249869108200073e-02,7.883919030427932739e-02,-4.305420909076929092e-03,-5.706077441573143005e-02,-2.812837064266204834e-02,
-6.379758566617965698e-02,1.516959350556135178e-02,-1.013841852545738220e-02,-4.942469298839569092e-03,-9.256955236196517944e-03,-3.799012675881385803e-02,-5.158687755465507507e-02,
-7.110387086868286133e-02,-1.635775342583656311e-02,2.954665385186672211e-02,5.502821132540702820e-02,8.310950547456741333e-02,1.770166493952274323e-02,-1.789775863289833069e-02,
-3.348980844020843506e-02,2.769324742257595062e-02,4.541407153010368347e-02,2.510712668299674988e-02,-2.928936854004859924e-02,1.294258795678615570e-02,7.768799364566802979e-02,
1.063908264040946960e-02,-6.131386756896972656e-02,-1.087652798742055893e-02,-7.913926988840103149e-02,5.361544713377952576e-02,1.711029373109340668e-02,7.865947484970092773e-02,
-2.007840387523174286e-02,-1.600741595029830933e-02,-3.188067674636840820e-02,8.456110209226608276e-02,2.393178455531597137e-02,-4.310593381524085999e-02,-5.183263123035430908e-02,
-1.066375374794006348e-01,-1.292650215327739716e-02,9.166589006781578064e-03,8.558442443609237671e-02,-1.062103547155857086e-02,2.392289601266384125e-02,-7.259422540664672852e-02,
-3.385994210839271545e-02,-1.852251403033733368e-02,-7.482872903347015381e-02,-2.184000983834266663e-02,-6.802952289581298828e-02,-7.938783615827560425e-02,1.729302108287811279e-02,
-6.543126702308654785e-02,1.714844629168510437e-02,-6.854303181171417236e-02,5.711074918508529663e-02,4.599805548787117004e-02,-3.546983748674392700e-02,6.622362136840820312e-02,
2.199161238968372345e-02,-7.972731441259384155e-02,2.935406193137168884e-02,8.616260439157485962e-02,-3.744888678193092346e-02,1.747342571616172791e-02,-9.248045831918716431e-02,
7.500835508108139038e-02,5.028219893574714661e-03,1.881742477416992188e-02,-6.771183758974075317e-02,-9.096007794141769409e-02,-5.552537366747856140e-02,-4.518591985106468201e-02,
-3.081798925995826721e-02,1.628731638193130493e-01,-7.184632867574691772e-02,-1.256657391786575317e-02,9.153462946414947510e-03,-1.861014775931835175e-02,-1.258485317230224609e-01,
-6.758552789688110352e-02,-1.058563813567161560e-01,-9.057334065437316895e-02,1.248892024159431458e-02,-3.319649770855903625e-02,-9.529437869787216187e-02,-3.376204520463943481e-02,
-3.402405604720115662e-02,-3.519107773900032043e-02,-1.004494726657867432e-01,2.032790035009384155e-01,-1.209396421909332275e-01,5.027907341718673706e-02,-6.371898949146270752e-02,
-4.692966490983963013e-02,2.320219296962022781e-03,2.673105895519256592e-02,-4.889363422989845276e-03,-2.229159325361251831e-02,6.281011272221803665e-03,-3.367283195257186890e-02,
-4.188053309917449951e-02,-4.789081215858459473e-02,7.192853093147277832e-02,8.484404534101486206e-02,1.625335216522216797e-02,-1.108189672231674194e-02,1.769071631133556366e-02,
-1.148501504212617874e-02,-6.059835478663444519e-02,7.891960442066192627e-02,-4.577778163366019726e-04,-9.378696233034133911e-02,-9.479290246963500977e-02,-4.648646712303161621e-02,
4.803628474473953247e-02,-1.057559531182050705e-02,-1.085378788411617279e-02,-8.583550900220870972e-02,-8.880295790731906891e-03,7.687285542488098145e-02,-1.022100076079368591e-01,
4.049091041088104248e-02,-7.581571489572525024e-02,-7.217101007699966431e-02,-2.008546888828277588e-02,3.313564881682395935e-02,-3.519726544618606567e-02,-3.946099802851676941e-02,
8.975385129451751709e-02,8.812441676855087280e-02,-1.863835612311959267e-03,-4.684991016983985901e-02,2.596251666545867920e-02,-8.089282363653182983e-02,4.040233045816421509e-02,
7.544405758380889893e-02,-7.026720792055130005e-03,5.241494998335838318e-02,1.379718165844678879e-02,-2.197762392461299896e-02,-4.323320835828781128e-02,-4.178349301218986511e-02,
-5.604318529367446899e-02,-5.716598406434059143e-02,1.842009648680686951e-02,-2.964000776410102844e-02,5.258152633905410767e-02,3.952326998114585876e-02,5.244723707437515259e-02,
8.407905697822570801e-02,-8.279994875192642212e-02,2.870240248739719391e-02,-7.200955599546432495e-02,-1.004975363612174988e-01,-3.314734622836112976e-02,-8.488933742046356201e-02,
4.084274545311927795e-02,-1.688337326049804688e-02,6.412173807621002197e-02,2.310966228833422065e-04,-8.511289209127426147e-02,-6.255508214235305786e-02,5.098387598991394043e-02,
-6.348620355129241943e-02,8.711043000221252441e-02,-4.426497220993041992e-02,8.359979838132858276e-02,2.562224864959716797e-03,3.946314007043838501e-02,5.113421007990837097e-02,
-2.618804387748241425e-02,6.223994493484497070e-02,-7.684810459613800049e-02,1.321930531412363052e-02,5.155275389552116394e-02,-6.983515620231628418e-02,6.561723072081804276e-03,
-4.073480516672134399e-02,5.538645386695861816e-02,3.245776519179344177e-02,7.964839041233062744e-02,2.189120464026927948e-02,-3.237046673893928528e-02,-1.000945083796977997e-02,
-6.496977806091308594e-02,5.865066125988960266e-02,-5.307096615433692932e-02,8.879736997187137604e-03,-1.012015566229820251e-01,-2.025755355134606361e-03,-1.880444237031042576e-03,
-3.298344835638999939e-02,6.383328884840011597e-02,6.509409099817276001e-02,5.346661433577537537e-02,-7.054349035024642944e-02,-7.834954187273979187e-03,-5.954236164689064026e-02,
-5.786208435893058777e-02,-6.594002246856689453e-02,6.359520554542541504e-02,-2.120461687445640564e-02,3.476191312074661255e-02,-2.368802390992641449e-02,-1.605335995554924011e-02,
7.486369460821151733e-02,4.302992299199104309e-02,-2.817763574421405792e-02,-4.943709447979927063e-02,-1.544573716819286346e-02,-3.779977187514305115e-02,-9.108874946832656860e-02,
-5.862312018871307373e-02,3.389502689242362976e-02,-7.134903222322463989e-02,6.483228504657745361e-02,-7.411401718854904175e-02,-8.452907204627990723e-02,-4.682415351271629333e-02,
-4.347679018974304199e-02,-7.585709448903799057e-03,7.217678427696228027e-02,-8.935682475566864014e-03,-6.628078967332839966e-02,4.126972332596778870e-02,6.950933486223220825e-02,
-2.456656191498041153e-03,-4.756063967943191528e-02,7.175310701131820679e-02,-4.893985390663146973e-02,9.533855132758617401e-03,-2.916476130485534668e-02,-8.464806713163852692e-03,
1.126804798841476440e-01,-2.595880813896656036e-02,5.238301679491996765e-02,-6.578709930181503296e-02,4.857191815972328186e-02,1.440059393644332886e-02,8.595343679189682007e-02,
-1.254242099821567535e-02,-6.917508691549301147e-02,5.147416144609451294e-02,-5.129591375589370728e-02,-2.717938646674156189e-02,1.776052959030494094e-04,3.689812729135155678e-03,
3.365720435976982117e-02,-3.590907528996467590e-02,9.829391539096832275e-02,8.347812294960021973e-02,-9.478400647640228271e-02,4.716974217444658279e-03,-7.473941892385482788e-02,
-7.958377152681350708e-02,-5.906640365719795227e-02,7.214194536209106445e-02,9.283633530139923096e-02,-7.653878629207611084e-02,-7.733140885829925537e-02,3.236283361911773682e-02,
-3.704976406879723072e-04,2.502297423779964447e-02,6.071781739592552185e-02,-3.086745180189609528e-02,-4.658056423068046570e-02,-4.815303161740303040e-02,5.639875680208206177e-02,
1.229120697826147079e-02,-5.076663196086883545e-02,-4.576567560434341431e-02,-5.829188972711563110e-02,2.611507847905158997e-02,-3.301433846354484558e-02,-4.630915075540542603e-02,
-1.409481093287467957e-02,-9.115470200777053833e-02,-3.482908010482788086e-02,-5.757468938827514648e-02,-2.400538884103298187e-02,6.110863760113716125e-02,-4.316949471831321716e-02,
-1.738630002364516258e-03,-7.672336697578430176e-02,-1.484662294387817383e-02,7.866451144218444824e-02,-5.451269447803497314e-02,-7.513165473937988281e-02,5.070849135518074036e-02,
-8.482870180159807205e-04,5.383929610252380371e-02,-6.924416869878768921e-02,-3.312306106090545654e-02,-6.005929410457611084e-02,3.222673013806343079e-02,-1.820827089250087738e-02,
6.719782017171382904e-03,-5.615985393524169922e-02,-3.173277527093887329e-02,2.053796127438545227e-02,6.385695189237594604e-02,3.779355809092521667e-02,-7.818066328763961792e-02,
-1.403885241597890854e-02,4.747073352336883545e-02,-3.759250417351722717e-02,-3.446358069777488708e-02,4.420818760991096497e-02,3.178951516747474670e-02,-8.396866917610168457e-02,
6.636177003383636475e-02,4.039091616868972778e-02,8.277827873826026917e-03,1.351759582757949829e-02,-5.943927913904190063e-02,-4.696344584226608276e-02,-4.248539730906486511e-02,
9.313231334090232849e-03,6.795579195022583008e-02,9.556870907545089722e-02,3.811153769493103027e-02,2.120443060994148254e-02,-1.246044505387544632e-02,-8.426208049058914185e-02,
-3.564957296475768089e-03,-3.038358502089977264e-02,7.953433692455291748e-02,-4.037205129861831665e-02,9.243104606866836548e-02,8.014587312936782837e-02,-7.447262853384017944e-02,
2.111774682998657227e-02,-1.380396727472543716e-02,8.221516758203506470e-02,4.215262457728385925e-02,6.689226627349853516e-02,6.416528671979904175e-02,7.149627059698104858e-02,
3.786394000053405762e-02,-6.622949987649917603e-02,-9.008595952764153481e-04,3.019395656883716583e-02,-8.248724043369293213e-02,-7.484908401966094971e-02,-8.795419335365295410e-02,
-5.808332469314336777e-03,-3.763010725378990173e-02,-7.033690065145492554e-02,1.469091791659593582e-02,-8.642192929983139038e-03,7.959865778684616089e-02,2.047498896718025208e-02,
-8.652575314044952393e-02,2.230224432423710823e-03,-5.700860545039176941e-02,4.202809184789657593e-02,8.222289383411407471e-02,2.741928212344646454e-02,-2.500496106222271919e-03,
2.390716224908828735e-02,5.789504200220108032e-02,7.197391241788864136e-02,-1.133603882044553757e-02,-4.683598130941390991e-02,-2.550335973501205444e-02,3.363133966922760010e-02,
8.830773085355758667e-02,-4.373896121978759766e-02,5.070590879768133163e-03,-8.353796787559986115e-03,8.778125047683715820e-02,-6.345518678426742554e-02,-2.020337432622909546e-02,
1.380318962037563324e-02,8.882441371679306030e-02,1.961424760520458221e-02,8.987584151327610016e-03,1.123272906988859177e-02,-1.247614435851573944e-02,3.468363359570503235e-02,
5.467614158987998962e-02,1.481892913579940796e-02,9.618615359067916870e-02,-2.513795346021652222e-02,1.975277438759803772e-03,-6.612906698137521744e-03,5.111627653241157532e-02,
5.616617947816848755e-02,5.939086154103279114e-02,2.040000166743993759e-03,7.737416028976440430e-02,-4.477367550134658813e-02,5.476200580596923828e-02,3.376097977161407471e-02,
1.411993149667978287e-02,-1.693563349545001984e-02,5.653185653500258923e-04,6.304884701967239380e-02,3.494177013635635376e-02,-6.036451831459999084e-02,1.645104028284549713e-02,
5.527380108833312988e-02,-1.194240748882293701e-01,6.350366771221160889e-02,2.911397721618413925e-03,1.011580303311347961e-01,-2.813491597771644592e-02,6.131716072559356689e-02,
-3.068120591342449188e-02,1.116893365979194641e-01,7.975880801677703857e-02,2.843172755092382431e-03,2.655890211462974548e-02,2.552557364106178284e-02,1.885115518234670162e-03,
5.203211680054664612e-02,-1.027107387781143188e-01,5.066570639610290527e-02,2.564858645200729370e-02,-3.235978260636329651e-02,-7.907906174659729004e-02,-9.817062318325042725e-02,
2.907736599445343018e-02,-8.688095957040786743e-03,3.399798274040222168e-02,5.056728795170783997e-02,8.386600762605667114e-02,1.493467018008232117e-02,2.541153319180011749e-02,
-1.071802899241447449e-02,6.902568042278289795e-02,8.063994348049163818e-02,1.166798453778028488e-02,6.386055797338485718e-02,-4.899865016341209412e-02,-1.287948340177536011e-02,
7.444971054792404175e-02,9.894936345517635345e-03,4.045567288994789124e-02,-4.806641861796379089e-02,4.907117225229740143e-03,-1.192949246615171432e-02,-2.016815729439258575e-02,
4.085131362080574036e-02,2.264711409807205200e-01,-8.704444020986557007e-02,1.546388864517211914e-01,-5.630160123109817505e-02,5.040778219699859619e-02,1.130529120564460754e-01,
-4.885720089077949524e-02,4.265056550502777100e-02,-1.121213138103485107e-01,-4.411422833800315857e-02,-4.997161775827407837e-02,1.465365290641784668e-01,9.936153143644332886e-02,
2.383518218994140625e-02,-1.633512973785400391e-02,1.284263730049133301e-01,-4.625586047768592834e-02,-2.620919793844223022e-02,-3.005332686007022858e-02,4.170609265565872192e-02,
-4.467604681849479675e-02,6.234269216656684875e-02,-1.001137197017669678e-01,4.497403651475906372e-02,8.971253782510757446e-02,-4.133710637688636780e-02,-5.763085186481475830e-02,
-1.317573245614767075e-02,-4.541406035423278809e-02,-3.595273708924651146e-03,-1.779032200574874878e-01,1.593421250581741333e-01,3.581453114748001099e-02,4.957326501607894897e-02,
-6.914869416505098343e-03,3.467260673642158508e-02,-6.319747865200042725e-02,3.817552328109741211e-02,-5.011694971472024918e-03,-2.116285450756549835e-02,-1.097794696688652039e-01,
1.816846057772636414e-02,5.166123062372207642e-02,1.952529102563858032e-01,-2.315051853656768799e-02,-3.224014863371849060e-02,-8.628667891025543213e-02,-8.730425685644149780e-02,
-5.906130187213420868e-03,1.516516953706741333e-01,-1.204713657498359680e-01,1.553630456328392029e-02,-3.780852258205413818e-02,-3.872535005211830139e-02,2.217065356671810150e-02,
1.075250282883644104e-01,3.215433284640312195e-02,-5.470123607665300369e-03,-1.224041357636451721e-02,-1.057431567460298538e-02,5.643855780363082886e-03,8.199509978294372559e-02,
-3.885744512081146240e-02,-2.786063589155673981e-02,7.859347388148307800e-03,-4.761250689625740051e-02,6.945005804300308228e-02,1.032874919474124908e-02,-5.774977803230285645e-02,
-2.226330526173114777e-02,1.622082293033599854e-02,3.157524857670068741e-03,4.246653406880795956e-04,-1.456912048161029816e-02,7.922553271055221558e-02,6.941168755292892456e-02,
9.692551940679550171e-02,4.670630022883415222e-02,4.283960163593292236e-02,-3.648301586508750916e-02,3.527703881263732910e-02,-5.933154001832008362e-02,6.873513013124465942e-02,
5.201297625899314880e-02,-4.389579966664314270e-02,5.202698707580566406e-02,-6.618024315685033798e-03,4.338960349559783936e-02,2.546320669353008270e-02,-6.319189816713333130e-02,
-6.768772751092910767e-02,5.162660032510757446e-02,-8.552984893321990967e-02,7.627625018358230591e-02,7.653099298477172852e-02,3.824881464242935181e-02,-4.801225662231445312e-02,
5.595468357205390930e-02,9.232823550701141357e-02,2.222748100757598877e-02,2.519681863486766815e-02,4.602449387311935425e-02,-8.356203138828277588e-02,8.598908036947250366e-02,
-5.233118310570716858e-02,-3.697700798511505127e-02,4.676243290305137634e-02,-3.081195615231990814e-02,-2.364645525813102722e-02,-1.881231367588043213e-02,2.833981066942214966e-02,
9.062832221388816833e-03,1.348516531288623810e-02,-1.807092316448688507e-02,-6.559291481971740723e-02,9.140823781490325928e-02,1.169326715171337128e-03,-5.454682186245918274e-02,
-1.247518928721547127e-03,-5.330822616815567017e-02,-2.703511901199817657e-02,4.230637848377227783e-02,1.877851597964763641e-02,-2.803048864006996155e-02,-6.437770277261734009e-02,
6.603328511118888855e-03,-4.651870951056480408e-02,-5.880781263113021851e-02,4.284383356571197510e-02,-6.271283607929944992e-03,1.145124286413192749e-01,3.685993328690528870e-02,
6.609372049570083618e-02,-2.643396891653537750e-02,-1.749623194336891174e-02,-7.342737168073654175e-02,-1.123984064906835556e-02,1.204168424010276794e-02,-6.262600072659552097e-04,
4.212383180856704712e-02,-4.311457276344299316e-02,-4.164230078458786011e-02,6.837601959705352783e-02,4.758215975016355515e-03,8.063110709190368652e-02,-2.949731424450874329e-02,
7.719648070633411407e-03,4.735097289085388184e-02,-2.338020130991935730e-02,5.848507583141326904e-02,-7.293237745761871338e-02,-3.059556148946285248e-02,-5.814854800701141357e-02,
9.542642533779144287e-02,-5.981589853763580322e-02,-9.232593327760696411e-02,-4.039502143859863281e-02,4.938641935586929321e-02,-5.447313189506530762e-02,-7.507062982767820358e-04,
-1.641314662992954254e-02,1.681891828775405884e-02,3.108679875731468201e-02,-5.912277474999427795e-02,-1.046669110655784607e-01,-5.416746810078620911e-02,-2.869343012571334839e-02,
-6.976763904094696045e-02,-4.619273915886878967e-02,-9.596524387598037720e-02,-4.048107936978340149e-02,5.520501732826232910e-02,-1.110898517072200775e-02,-2.251757867634296417e-02,
6.855369359254837036e-02,5.896649137139320374e-02,4.159105301368981600e-04,-5.527221411466598511e-02,1.866922341287136078e-02,-7.904683589003980160e-04,-6.765621900558471680e-02,
-3.900342807173728943e-02,-1.214368967339396477e-03,-6.161478906869888306e-02,7.497993856668472290e-02,6.615468114614486694e-02,1.016304083168506622e-02,4.229107126593589783e-02,
8.432017266750335693e-02,-3.218077495694160461e-02,5.101719126105308533e-02,-3.807755187153816223e-02,-2.680813893675804138e-02,-1.050695031881332397e-02,6.956973671913146973e-02,
1.045902445912361145e-01,6.167608126997947693e-02,1.356121599674224854e-01,-5.284194834530353546e-03,-3.257373347878456116e-02,-4.264579340815544128e-02,4.571630805730819702e-02,
8.135296404361724854e-03,-6.450145505368709564e-03,9.734017401933670044e-02,1.045881062746047974e-01,4.682944715023040771e-02,1.617854647338390350e-02,-1.709242165088653564e-02,
-6.669483147561550140e-03,-7.081338763236999512e-02,1.113146319985389709e-01,7.934137433767318726e-02,-6.560284644365310669e-02,-4.286004602909088135e-02,3.133014962077140808e-02,
3.626948595046997070e-02,-4.251272883266210556e-03,8.609778434038162231e-02,-8.241746574640274048e-02,-4.493170976638793945e-02,4.191313404589891434e-03,4.059014469385147095e-02,
-2.832388132810592651e-02,-5.402134358882904053e-02,6.164848338812589645e-03,-5.182760767638683319e-03,1.416201982647180557e-02,-5.484068393707275391e-02,-8.879365399479866028e-03,
-2.896146848797798157e-03,4.510132223367691040e-02,5.424152687191963196e-02,3.862327337265014648e-02,1.301820110529661179e-02,1.541111320257186890e-01,-4.681632295250892639e-02,
-5.882930010557174683e-02,-1.700936444103717804e-02,-2.685972303152084351e-02,4.157806560397148132e-02,1.928078383207321167e-02,-5.039744824171066284e-02,1.006638631224632263e-02,
6.760577205568552017e-03,4.790146276354789734e-02,2.315022796392440796e-02,6.156104058027267456e-02,1.564360922202467918e-03,-1.782593689858913422e-02,9.875082969665527344e-02,
5.168039724230766296e-02,-5.635974183678627014e-02,1.270862370729446411e-01,8.971656113862991333e-02,1.178516447544097900e-02,-6.525155156850814819e-02,2.630217000842094421e-02,
6.954871863126754761e-02,8.322189748287200928e-02,8.144532889127731323e-02,6.274035573005676270e-02,-3.997144848108291626e-02,-7.123721390962600708e-02,-5.593033134937286377e-02,
2.336267754435539246e-02,-1.132635958492755890e-02,-3.441580920480191708e-04,3.236119821667671204e-02,3.228413173928856850e-03,7.811845839023590088e-02,-6.499060243368148804e-02,
-2.245013602077960968e-02,-4.269229248166084290e-02,-4.992384929209947586e-03,4.215897992253303528e-02,-5.188689753413200378e-02,1.232370384968817234e-03,-2.869071206077933311e-03,
7.262208312749862671e-02,7.008273154497146606e-02,4.743796214461326599e-02,-7.884445041418075562e-02,-1.865288987755775452e-02,-5.981536582112312317e-02,-4.003784433007240295e-02,
-7.002738118171691895e-02,-5.307830125093460083e-02,-3.803776577115058899e-02,3.742638602852821350e-02,-2.450563572347164154e-02,1.482946891337633133e-02,6.993120908737182617e-02,
5.612749140709638596e-03,1.214222051203250885e-02,5.609524622559547424e-02,4.501373693346977234e-02,-4.893863573670387268e-02,-9.295527823269367218e-03,4.477917402982711792e-02,
-5.483169481158256531e-02,-3.213042393326759338e-02,-4.704834520816802979e-02,-3.532162308692932129e-02,-2.094710990786552429e-02,-1.827518269419670105e-02,-6.815227866172790527e-02,
1.246878597885370255e-02,-3.971141576766967773e-02,-1.436963863670825958e-02,-4.510713368654251099e-02,-1.478061452507972717e-02,5.983601510524749756e-02,-1.579137146472930908e-02,
-2.701978757977485657e-02,3.899015486240386963e-02,6.110219284892082214e-02,4.992552474141120911e-02,1.171735697425901890e-03,4.605558514595031738e-02,9.309985488653182983e-02,
-8.759324252605438232e-02,1.296758949756622314e-01,1.175306290388107300e-01,-1.263960450887680054e-02,3.809949010610580444e-02,1.010013967752456665e-01,-2.189026772975921631e-02,
-2.451061084866523743e-02,-9.628310799598693848e-03,8.949577808380126953e-02,2.654385752975940704e-02,7.326970249414443970e-02,1.073889285326004028e-01,6.672797352075576782e-02,
6.565691530704498291e-02,-5.713929235935211182e-02,8.344935625791549683e-02,7.064452767372131348e-02,-6.738110631704330444e-02,1.255884952843189240e-02,3.813403844833374023e-02,
9.606054425239562988e-02,7.637317478656768799e-02,-5.577922239899635315e-02,5.493932217359542847e-02,4.973452538251876831e-02,6.968821585178375244e-02,-5.776552483439445496e-03,
5.758976191282272339e-02,1.886975206434726715e-02,1.367869079113006592e-01,3.489153459668159485e-02,5.643258616328239441e-02,6.910508126020431519e-02,-3.244636580348014832e-02,
2.834080904722213745e-02,2.742593921720981598e-02,6.559266149997711182e-02,4.224066436290740967e-02,5.421052873134613037e-02,-6.055336445569992065e-02,-2.491005510091781616e-02,
1.451417952775955200e-01,6.345052272081375122e-02,6.754100322723388672e-02,-2.867460437119007111e-02,9.830927848815917969e-02,-3.686460852622985840e-02,1.552031934261322021e-01,
-6.679654121398925781e-02,-2.537695132195949554e-02,-5.941708805039525032e-04,3.566394373774528503e-02,8.899087458848953247e-02,-3.169805556535720825e-02,4.384592175483703613e-02,
-5.827222019433975220e-02,7.002618908882141113e-02,-5.233584716916084290e-02,7.393793761730194092e-02,4.801592975854873657e-02,-1.737375743687152863e-02,6.186733394861221313e-02,
-4.655110836029052734e-02,-5.240784212946891785e-02,2.534285001456737518e-02,1.444616317749023438e-01,-1.171403527259826660e-01,1.083422228693962097e-01,8.015123009681701660e-02,
1.834299974143505096e-02,-5.971394479274749756e-02,-3.976737707853317261e-02,5.510603263974189758e-02,-5.004957690834999084e-02,-4.790516570210456848e-02,2.053322829306125641e-02,
-4.658808931708335876e-02,-6.060845404863357544e-02,3.776481002569198608e-02,1.086084544658660889e-02,9.725960344076156616e-02,-5.559938028454780579e-03,7.032733410596847534e-02,
9.076406061649322510e-02,-5.855962261557579041e-02,-3.604519180953502655e-03,-4.606599360704421997e-02,4.824286792427301407e-03,6.758802384138107300e-02,9.428501129150390625e-03,
-9.729192405939102173e-02,-4.522535018622875214e-03,-6.613051053136587143e-03,8.851407095789909363e-03,3.171849623322486877e-02,2.548598498106002808e-02,-1.073287567123770714e-03,
-2.250050567090511322e-02,-6.384979933500289917e-02,1.581687293946743011e-02,-1.143975108861923218e-01,1.232564100064337254e-03,7.227641344070434570e-02,4.595305025577545166e-02,
7.450713217258453369e-02,-3.430946171283721924e-02,7.298322767019271851e-02,7.449185848236083984e-02,-5.265415459871292114e-02,8.863663673400878906e-02,1.810865849256515503e-02,
5.508822947740554810e-02,8.371437340974807739e-02,1.764213293790817261e-02,-7.275341451168060303e-02,-8.732846379280090332e-02,1.245937645435333252e-01,8.514504134654998779e-02,
7.327675819396972656e-02,-7.833890616893768311e-02,2.192674204707145691e-02,7.751532644033432007e-02,-4.005040228366851807e-02,8.722081780433654785e-02,2.984880283474922180e-02,
1.009667571634054184e-02,-1.136945113539695740e-01,7.374752312898635864e-02,5.875534564256668091e-02,5.213034152984619141e-02,8.016116172075271606e-02,-3.815796598792076111e-02,
3.083269484341144562e-02,-6.436866521835327148e-02,5.818950012326240540e-03,6.830772012472152710e-02,5.822433158755302429e-02,-4.659199342131614685e-02,2.566496282815933228e-02,
5.330200865864753723e-02,6.520192325115203857e-02,-7.057014107704162598e-02,-1.642752555198967457e-03,-6.209541484713554382e-02,-1.670652069151401520e-02,6.354472041130065918e-02,
-4.159017931669950485e-03,8.600188791751861572e-02,1.485834456980228424e-02,-1.797271333634853363e-02,-6.979449093341827393e-02,-2.230086177587509155e-02,1.702591404318809509e-02,
5.095364991575479507e-03,-5.291844159364700317e-02,5.791745334863662720e-02,6.258233636617660522e-02,4.781212657690048218e-02,-7.993365079164505005e-02,-1.096578314900398254e-02,
1.867968402802944183e-02,-1.484280079603195190e-02,-2.248574420809745789e-02,2.709622122347354889e-02,6.988990306854248047e-02,-5.123876407742500305e-02,
-4.487425833940505981e-02,-8.806180953979492188e-02,-5.837068706750869751e-02,6.483548134565353394e-02,6.244169548153877258e-02,4.930236190557479858e-02,-6.280631572008132935e-02,
7.537718117237091064e-02,-7.725443691015243530e-02,5.443614721298217773e-02,-5.462367087602615356e-02,-7.697455585002899170e-02,2.621011622250080109e-02,2.416211925446987152e-02,
-5.932373926043510437e-03,-1.546395942568778992e-02,-1.620725356042385101e-02,2.901126071810722351e-02,-6.192566454410552979e-02,-6.927979178726673126e-03,2.726041339337825775e-02,
8.428089320659637451e-02,-1.477775070816278458e-02,5.480087175965309143e-02,1.025664806365966797e-01,-2.998269535601139069e-02,-2.672292850911617279e-02,-6.594362109899520874e-02,
1.910276710987091064e-02,1.488504409790039062e-01,-4.425843805074691772e-02,-1.106538251042366028e-01,3.513120859861373901e-02,1.019842177629470825e-02,1.152680218219757080e-01,
4.871876537799835205e-02,-2.259007282555103302e-02,-2.412039611954241991e-04,-1.189216854982078075e-03,3.924728184938430786e-02,5.159104242920875549e-02,-6.674879044294357300e-02,
7.285507023334503174e-02,5.532820895314216614e-02,-7.065998017787933350e-02,2.302571898326277733e-03,4.043487831950187683e-02,-5.124345421791076660e-02,-5.180615931749343872e-02,
-4.627117142081260681e-02,8.224321156740188599e-02,-7.380084693431854248e-02,-3.993171826004981995e-02,-4.941177740693092346e-02,-2.037449739873409271e-02,-2.263190411031246185e-02,
5.297948047518730164e-02,1.308399736881256104e-01,-1.049175336956977844e-01,2.327134273946285248e-02,-4.818478971719741821e-02,1.763859391212463379e-02,-7.264737971127033234e-03,
-1.784344762563705444e-02,4.830530285835266113e-02,-3.317919094115495682e-03,6.877533346414566040e-02,1.692359708249568939e-02,-8.039294928312301636e-02,1.559318508952856064e-02,
6.559469550848007202e-02,2.886939980089664459e-02,-2.721049264073371887e-02,1.392839998006820679e-01,6.829468160867691040e-02,4.788539558649063110e-02,-8.222727477550506592e-02,
-9.790463373064994812e-03,-2.190348319709300995e-02,7.238413393497467041e-02,7.163223624229431152e-02,9.412228316068649292e-02,8.111144602298736572e-02,-7.714834809303283691e-02,
-1.460488885641098022e-02,3.370532393455505371e-02,6.654063239693641663e-03,-4.227628186345100403e-02,-4.325865209102630615e-02,-6.315125524997711182e-02,2.121018432080745697e-02,
8.817946910858154297e-02,6.850662082433700562e-02,3.553956001996994019e-02,2.428641915321350098e-02,-5.004690214991569519e-02,-6.112994626164436340e-02,7.502426207065582275e-02,
1.223913356661796570e-01,1.275708619505167007e-02,9.162651747465133667e-02,2.528017573058605194e-02,7.043835520744323730e-02,-2.224805392324924469e-02,-7.926663383841514587e-03,
6.254674494266510010e-02,4.158432036638259888e-02,5.181416496634483337e-02,-1.623824425041675568e-02,6.500017642974853516e-02,1.987411268055438995e-02,-1.497165649197995663e-03,
-4.624235257506370544e-02,1.518495529890060425e-01,9.903529286384582520e-02,-3.381787240505218506e-02,-3.848616406321525574e-02,1.089428514242172241e-01,1.316538662649691105e-03,
1.792936958372592926e-02,-5.504185333847999573e-03,-1.851806789636611938e-02,-4.516248032450675964e-02,-6.046782806515693665e-02,2.540671639144420624e-02,-6.369061022996902466e-02,
2.388681471347808838e-02,-6.015702337026596069e-02,-1.133710797876119614e-02,-1.102296710014343262e-01,8.468991518020629883e-02,7.826747745275497437e-02,-3.406788408756256104e-02,
1.779071241617202759e-02,-2.436107397079467773e-02,-6.130123138427734375e-02,-1.972400583326816559e-03,2.894970402121543884e-02,7.328989356756210327e-02,4.055642709136009216e-02,
-4.483459889888763428e-02,8.561121672391891479e-02,1.905969157814979553e-02,4.472851380705833435e-02,4.282554239034652710e-02,8.607849478721618652e-02,-1.569381728768348694e-02,
-4.033466055989265442e-02,9.571526944637298584e-02,-8.728852868080139160e-02,-3.389066830277442932e-02,-7.901386357843875885e-03,-1.397800445556640625e-01,3.483379259705543518e-02,
-3.486975282430648804e-02,1.605138555169105530e-02,1.049385312944650650e-02,5.544721148908138275e-03,6.971267610788345337e-02,-2.324881963431835175e-03,-4.187429696321487427e-02,
1.629503443837165833e-02,8.592722564935684204e-02,-3.437059372663497925e-02,2.921441383659839630e-02,2.916161343455314636e-02,4.334583878517150879e-02,3.658680478110909462e-03,
5.040282756090164185e-02,5.977110564708709717e-02,-6.781091541051864624e-02,-1.392630953341722488e-02,2.772046998143196106e-02,5.867032334208488464e-02,6.073550134897232056e-02,
-5.059640109539031982e-02,-6.332027912139892578e-02,-3.719950327649712563e-03,-5.564469471573829651e-02,1.156192552298307419e-02,8.879830711521208286e-04,-1.295098811388015747e-01,
5.794489011168479919e-02,-1.851657871156930923e-03,-1.393801718950271606e-02,-3.442995622754096985e-02,-1.034676190465688705e-02,-6.924505531787872314e-02,-5.800090357661247253e-02,
5.543293431401252747e-02,-5.237261950969696045e-02,-2.976195514202117920e-02,4.512898996472358704e-02,-6.612610071897506714e-02,7.120448350906372070e-02,2.624455140903592110e-03,
-1.860305666923522949e-02,7.302346825599670410e-02,-7.570669054985046387e-02,-7.272718846797943115e-02,-2.689067088067531586e-02,7.175416499376296997e-02,-7.834236323833465576e-02,
-5.331574380397796631e-02,3.761148825287818909e-02,2.781384810805320740e-02,-2.160075493156909943e-02,-6.596132367849349976e-02,-3.326349705457687378e-02,3.781666606664657593e-02,
8.678813278675079346e-02,-7.771058380603790283e-02,7.116392999887466431e-02,-5.167517345398664474e-03,-9.818486869335174561e-03,1.088796481490135193e-01,5.101705342531204224e-02,
2.047811634838581085e-03,5.386500433087348938e-02,1.254135370254516602e-01,-3.935782983899116516e-02,1.038259193301200867e-01,7.157270610332489014e-02,4.242150485515594482e-02,
-2.613579295575618744e-02,-7.091338932514190674e-02,1.273857504129409790e-01,2.384059689939022064e-02,1.103216856718063354e-01,1.031507775187492371e-01,-1.524251252412796021e-01,
-4.048489406704902649e-02,2.634063549339771271e-02,2.301217988133430481e-02,-2.609273418784141541e-02,2.644843235611915588e-02,-6.722662597894668579e-02,-2.104194834828376770e-02,
-5.159566178917884827e-02,-1.382296904921531677e-03,-6.577174365520477295e-02,-3.135300800204277039e-02,1.074194163084030151e-02,-5.397053062915802002e-02,3.669276088476181030e-02,
4.169134050607681274e-02,1.581387408077716827e-02,2.355343429371714592e-03,9.421616047620773315e-02,8.096277713775634766e-02,9.255379438400268555e-02,2.647697925567626953e-02,
-1.748942770063877106e-02,-5.841120332479476929e-02,-1.333847409114241600e-03,2.903928048908710480e-02,-6.776190549135208130e-02,-1.343309413641691208e-02,1.134456098079681396e-01,
-8.000076748430728912e-03,-9.927535429596900940e-03,3.543535619974136353e-02,3.207557648420333862e-02,1.039955243468284607e-01,-8.031994849443435669e-02,8.400453627109527588e-02,
6.386108696460723877e-02,1.011429727077484131e-01,-5.445833504199981689e-02,-6.735209841281175613e-03,4.679109528660774231e-02,9.227913618087768555e-02,-1.196982990950345993e-02,
-8.399363607168197632e-02,-5.345740355551242828e-03,1.183091942220926285e-02,1.390498876571655273e-02,1.812654435634613037e-01,1.195551361888647079e-02,-7.990066707134246826e-02,
-1.307489275932312012e-01,4.560424759984016418e-02,4.721634462475776672e-02,1.468629576265811920e-02,-9.787750244140625000e-02,6.210988014936447144e-02,8.823630213737487793e-02,
-6.697472929954528809e-02,-1.971564255654811859e-02,8.105195313692092896e-02,2.572178142145276070e-03,2.517076395452022552e-02,4.785311222076416016e-02,1.697099767625331879e-02,
-1.106627564877271652e-02,-1.439434289932250977e-02,4.205561801791191101e-02,1.401942782104015350e-02,6.830500811338424683e-02,-3.786380216479301453e-02,3.373261913657188416e-02,
-3.036514855921268463e-03,-4.528455436229705811e-02,3.782609850168228149e-02,-7.753793895244598389e-02,-1.577834482304751873e-03,4.384952597320079803e-03,-5.570467561483383179e-02,
-5.396575480699539185e-02,5.811073258519172668e-02,-7.244117558002471924e-03,5.464947968721389771e-02,2.166893705725669861e-02,-1.173841953277587891e-02,-3.762573376297950745e-02,
-4.428440332412719727e-02,-6.721124518662691116e-03,2.059788070619106293e-02,-6.630821526050567627e-02,4.303855448961257935e-02,-1.895233616232872009e-02,-6.060338765382766724e-02,
-8.471057750284671783e-03,3.679002448916435242e-02,7.175662368535995483e-02,2.956682816147804260e-02,-8.128296583890914917e-02,-4.702785238623619080e-02,-4.333021119236946106e-02,
1.159584708511829376e-02,4.250722995493561029e-04,5.093741044402122498e-02,1.428364426828920841e-03,-4.300766624510288239e-03,8.449002355337142944e-02,-7.068091630935668945e-02,
4.125751182436943054e-02,-2.408358035609126091e-03,8.385663479566574097e-02,7.370537519454956055e-02,2.979342266917228699e-02,-2.601495571434497833e-02,6.364646367728710175e-03,
6.126311793923377991e-02,5.188670940697193146e-03,-8.307018131017684937e-02,8.650382608175277710e-02,-3.457678481936454773e-02,6.453514099121093750e-02,1.788054220378398895e-02,
6.959512084722518921e-02,-1.123680919408798218e-01,-6.196992844343185425e-02,-1.028797775506973267e-02,5.083972588181495667e-02,7.189824245870113373e-03,-4.740285873413085938e-02,
1.694533675909042358e-01,4.116585105657577515e-02,6.895887851715087891e-02,-1.611874997615814209e-02,-4.004497826099395752e-02,-3.502341359853744507e-02,-2.323796506971120834e-03,
4.498530924320220947e-02,-4.301771894097328186e-02,-1.314567774534225464e-01,-6.436424702405929565e-02,3.008716925978660583e-02,6.520605087280273438e-02,9.472423791885375977e-02,
-8.149999380111694336e-02,-3.597712889313697815e-02,1.338026672601699829e-01,6.273151189088821411e-02,7.391483988612890244e-03,5.679340660572052002e-02,1.458725426346063614e-02,
1.060043834149837494e-02,3.047325275838375092e-02,-4.697869531810283661e-03,-4.628990218043327332e-02,-4.981871228665113449e-03,-3.739977255463600159e-02,2.521621435880661011e-02,
-1.421118825674057007e-01,-2.629056572914123535e-02,8.853738009929656982e-02,2.708454802632331848e-02,-8.929116278886795044e-02,-6.770690530538558960e-02,8.074684441089630127e-02,
2.291256189346313477e-02,3.010257147252559662e-03,-1.465283241122961044e-02,-3.367548435926437378e-02,5.724570527672767639e-02,-2.696057036519050598e-02,6.885617971420288086e-02,
1.830924674868583679e-02,1.117318943142890930e-01,1.060962304472923279e-01,2.179873175919055939e-02,-3.397824987769126892e-02,2.819439582526683807e-02,3.285945206880569458e-02,
3.177230479195713997e-03,1.081623323261737823e-02,9.873556904494762421e-03,-8.540131896734237671e-02,-2.070173993706703186e-02,1.094191987067461014e-02,6.724149733781814575e-02,
-4.684869572520256042e-02,-1.619488000869750977e-02,-1.040322110056877136e-01,7.896699942648410797e-03,6.078940257430076599e-02,2.554979734122753143e-02,-9.262363426387310028e-03,
-6.769549101591110229e-02,-7.345572113990783691e-02,4.128027707338333130e-02,-7.488611340522766113e-02,-2.547094039618968964e-02,-5.091649293899536133e-02,7.368124276399612427e-02,
-5.886077880859375000e-02,-7.882811129093170166e-02,-6.274202466011047363e-02,-6.045125052332878113e-02,4.016893357038497925e-02,6.684092432260513306e-02,4.352277517318725586e-02,
7.222287356853485107e-02,-3.168056532740592957e-02,4.903468303382396698e-03,7.093541324138641357e-02,2.420721948146820068e-02,-6.240843608975410461e-02,2.838062308728694916e-02,
-3.213301301002502441e-02,6.210617721080780029e-02,3.427558764815330505e-02,-6.416761875152587891e-02,5.921929702162742615e-02,8.009414374828338623e-02,4.144327342510223389e-02,
-4.690206795930862427e-02,-3.666594997048377991e-02,-5.064757913351058960e-02,-4.974584653973579407e-02,6.792966276407241821e-02,-6.395765114575624466e-03,1.892071962356567383e-02,
-3.739568218588829041e-02,-1.229032874107360840e-01,2.451160689815878868e-03,-2.601702697575092316e-02,3.253137692809104919e-02,-1.760500483214855194e-02,-2.586960233747959137e-02,
8.647216856479644775e-02,2.050015144050121307e-02,-4.466718435287475586e-02,3.539511933922767639e-02,-5.469924071803689003e-04,6.879764050245285034e-02,7.529035210609436035e-02,
-3.166748955845832825e-02,-7.913718000054359436e-03,-8.731561899185180664e-02,-1.116618961095809937e-01,-1.571054570376873016e-02,-1.840473269112408161e-03,6.153757497668266296e-02,
-1.517602652311325073e-01,-1.756614446640014648e-02,-5.553311854600906372e-02,2.783505432307720184e-02,-1.007512211799621582e-01,-6.780055910348892212e-02,-8.671692013740539551e-02,
-5.137985572218894958e-02,-1.137315481901168823e-01,1.204787939786911011e-01,-8.822043240070343018e-02,5.318410694599151611e-02,-1.323102861642837524e-01,-1.091364026069641113e-01,
2.126539312303066254e-02,-9.037569910287857056e-02,-8.134467154741287231e-02,-1.091991066932678223e-01,-1.016511321067810059e-01,-4.903915897011756897e-02,9.179074317216873169e-02,
-7.157102227210998535e-02,-1.118269190192222595e-01,7.813578844070434570e-02,-5.304194986820220947e-02,6.869900226593017578e-02,-9.618968516588211060e-02,-3.975210711359977722e-02,
-3.949529677629470825e-02,-5.002458766102790833e-02,1.038160473108291626e-01,-3.406630828976631165e-02,7.234399020671844482e-02,5.873260553926229477e-03,-2.263619378209114075e-02,
4.367525875568389893e-02,2.046949043869972229e-02,-9.726019948720932007e-02,6.425644457340240479e-02,9.858626127243041992e-02,-8.154260367155075073e-02,-6.960038561373949051e-03,
-6.312179565429687500e-02,-1.033421233296394348e-02,-3.858270123600959778e-02,1.443005725741386414e-02,-9.866496920585632324e-02,2.396966144442558289e-02,7.249149680137634277e-02,
3.912448510527610779e-02,7.404001802206039429e-02,-1.120039224624633789e-01,2.882747910916805267e-02,-1.891729235649108887e-02,-1.322108507156372070e-01,-1.074495390057563782e-01,
-4.816880822181701660e-02,3.141653537750244141e-02,-4.686301201581954956e-02,-3.566249273717403412e-03,-5.275126174092292786e-02,-7.024339586496353149e-02,5.076416954398155212e-02,
1.330260187387466431e-01,-5.771806463599205017e-02,-1.896690391004085541e-02,5.539945792406797409e-03,4.784969240427017212e-02,-3.340423479676246643e-02,-5.104251950979232788e-02,
-6.859944667667150497e-03,-8.462152443826198578e-03,4.955134540796279907e-02,5.671778693795204163e-02,8.203548192977905273e-02,-6.896193325519561768e-02,-1.727069355547428131e-02,
6.110272556543350220e-02,-2.821797132492065430e-02,7.927877828478813171e-03,-3.852185606956481934e-02,8.453783392906188965e-02,-1.236410904675722122e-02,-7.155281491577625275e-03,
-7.615152001380920410e-02,1.084598973393440247e-01,-7.614395767450332642e-02,-7.160248607397079468e-02,3.185457363724708557e-02,-1.365320235490798950e-01,7.415441423654556274e-02,
